{"learner":{"attributes":{"scikit_learn":"{\"_estimator_type\": \"classifier\"}"},"feature_names":["V1","V2","V3","V4","V5","V6","V7","V8","V9","V10","V11","V12","V13","V14","V15","V16","V17","V18","V19","V20","V21","V22","V23","V24","V25","V26","V27","V28","Amount_scaled","Hour_scaled"],"feature_types":["float","float","float","float","float","float","float","float","float","float","float","float","float","float","float","float","float","float","float","float","float","float","float","float","float","float","float","float","float","float"],"gradient_booster":{"model":{"gbtree_model_param":{"num_parallel_tree":"1","num_trees":"100"},"iteration_indptr":[0,1,2,3,4,5,6,7,8,9,10,11,12,13,14,15,16,17,18,19,20,21,22,23,24,25,26,27,28,29,30,31,32,33,34,35,36,37,38,39,40,41,42,43,44,45,46,47,48,49,50,51,52,53,54,55,56,57,58,59,60,61,62,63,64,65,66,67,68,69,70,71,72,73,74,75,76,77,78,79,80,81,82,83,84,85,86,87,88,89,90,91,92,93,94,95,96,97,98,99,100],"tree_info":[0,0,0,0,0,0,0,0,0,0,0,0,0,0,0,0,0,0,0,0,0,0,0,0,0,0,0,0,0,0,0,0,0,0,0,0,0,0,0,0,0,0,0,0,0,0,0,0,0,0,0,0,0,0,0,0,0,0,0,0,0,0,0,0,0,0,0,0,0,0,0,0,0,0,0,0,0,0,0,0,0,0,0,0,0,0,0,0,0,0,0,0,0,0,0,0,0,0,0,0],"trees":[{"base_weights":[3.7567855E-9,1.868039E0,-1.5372989E0,1.9911636E0,7.405613E-1,-1.7436982E0,-1.9635928E-1,-1.9310345E-1,1.9935794E0,1.1732178E0,-1.3359252E0,-1.7822965E0,2.6076207E-1,6.7019194E-1,-1.3520366E0,1.9948101E-1,-1.8688525E-1,1.4059862E-1,-1.9930314E-1,-1.9971572E-1,1.4111471E-1,-1.1045785E-1,-1.8868871E-1,1.2815426E-1,-1.9937305E-1,1.1825042E-1,-6.7741685E-2,-1.7899857E-1,1.419829E-2],"categories":[],"categories_nodes":[],"categories_segments":[],"categories_sizes":[],"default_left":[0,0,0,0,0,0,0,0,0,0,0,0,0,0,0,0,0,0,0,0,0,0,0,0,0,0,0,0,0],"id":0,"left_children":[1,3,5,7,9,11,13,-1,15,17,19,21,23,25,27,-1,-1,-1,-1,-1,-1,-1,-1,-1,-1,-1,-1,-1,-1],"loss_changes":[3.265952E5,7.125672E3,1.7266328E4,4.424375E2,4.544103E3,4.1833906E3,8.335868E3,0E0,2.2359375E2,3.087084E3,1.5873484E3,3.7577969E3,2.355187E3,3.28507E3,2.3340195E3,0E0,0E0,0E0,0E0,0E0,0E0,0E0,0E0,0E0,0E0,0E0,0E0,0E0,0E0],"parents":[2147483647,0,0,1,1,2,2,3,3,4,4,5,5,6,6,8,8,9,9,10,10,11,11,12,12,13,13,14,14],"right_children":[2,4,6,8,10,12,14,-1,16,18,20,22,24,26,28,-1,-1,-1,-1,-1,-1,-1,-1,-1,-1,-1,-1,-1,-1],"split_conditions":[-1.7919981E0,-1.4326483E0,1.6183813E0,-6.4566904E-1,3.208446E-1,2.5015008E0,1.20916135E-4,-1.9310345E-1,1.1040987E0,4.764953E-1,1.6210725E0,-8.076299E-1,-3.3100858E-1,-2.3424065E-1,9.722859E-1,1.9948101E-1,-1.8688525E-1,1.4059862E-1,-1.9930314E-1,-1.9971572E-1,1.4111471E-1,-1.1045785E-1,-1.8868871E-1,1.2815426E-1,-1.9937305E-1,1.1825042E-1,-6.7741685E-2,-1.7899857E-1,1.419829E-2],"split_indices":[13,11,3,3,14,6,7,0,9,25,28,13,25,11,13,0,0,0,0,0,0,0,0,0,0,0,0,0,0],"split_type":[0,0,0,0,0,0,0,0,0,0,0,0,0,0,0,0,0,0,0,0,0,0,0,0,0,0,0,0,0],"sum_hessian":[1.137255E5,5.1339914E4,6.2385586E4,4.6284695E4,5.0552207E3,5.4063723E4,8.321864E3,2.8E1,4.6256695E4,4.183899E3,8.713217E2,5.3042434E4,1.0212868E3,4.7560776E3,3.5657869E3,4.6242445E4,1.425E1,3.8978992E3,2.86E2,7.025E2,1.688217E2,7.0930386E3,4.5949395E4,7.032868E2,3.18E2,3.4461123E3,1.3099651E3,2.7573218E3,8.084651E2],"tree_param":{"num_deleted":"0","num_feature":"30","num_nodes":"29","size_leaf_vector":"1"}},{"base_weights":[2.2664211E-5,1.6979402E0,-1.3945153E0,1.8105925E0,6.7049295E-1,-1.6065716E0,-3.1198135E-1,-1.7609185E-1,1.8127942E0,-1.4218523E-1,1.6455097E0,-1.6435381E0,2.779449E-1,6.202383E-1,-1.1405302E0,1.8139179E-1,-1.708588E-1,5.5075344E-2,-1.9163112E-1,-1.9859256E-1,1.7708589E-1,-1.6937381E-1,-4.6977423E-2,-1.9065025E-1,1.17184676E-1,1.2743561E-1,-2.8849214E-2,3.7688978E-2,-1.6017304E-1],"categories":[],"categories_nodes":[],"categories_segments":[],"categories_sizes":[],"default_left":[0,0,0,0,0,0,0,0,0,0,0,0,0,0,0,0,0,0,0,0,0,0,0,0,0,0,0,0,0],"id":1,"left_children":[1,3,5,7,9,11,13,-1,15,17,19,21,23,25,27,-1,-1,-1,-1,-1,-1,-1,-1,-1,-1,-1,-1,-1,-1],"loss_changes":[2.6701938E5,5.8848125E3,1.4213023E4,3.6354688E2,3.9830288E3,3.6072812E3,7.8353174E3,0E0,1.8434375E2,3.3723828E3,1.0436709E3,2.9912344E3,1.9489039E3,2.8379395E3,3.7591572E3,0E0,0E0,0E0,0E0,0E0,0E0,0E0,0E0,0E0,0E0,0E0,0E0,0E0,0E0],"parents":[2147483647,0,0,1,1,2,2,3,3,4,4,5,5,6,6,8,8,9,9,10,10,11,11,12,12,13,13,14,14],"right_children":[2,4,6,8,10,12,14,-1,16,18,20,22,24,26,28,-1,-1,-1,-1,-1,-1,-1,-1,-1,-1,-1,-1,-1,-1],"split_conditions":[-1.7919981E0,-1.4326483E0,1.3937783E0,-6.4566904E-1,1.8897588E0,2.5015008E0,-4.535324E-1,-1.7609185E-1,1.1040987E0,-1.1878401E-1,1.19341284E-1,1.3115441E0,2.3149592E-1,1.420272E-1,-1.1482761E0,1.8139179E-1,-1.708588E-1,5.5075344E-2,-1.9163112E-1,-1.9859256E-1,1.7708589E-1,-1.6937381E-1,-4.6977423E-2,-1.9065025E-1,1.17184676E-1,1.2743561E-1,-2.8849214E-2,3.7688978E-2,-1.6017304E-1],"split_indices":[13,11,3,3,3,6,11,0,9,25,0,16,14,13,28,0,0,0,0,0,0,0,0,0,0,0,0,0,0],"split_type":[0,0,0,0,0,0,0,0,0,0,0,0,0,0,0,0,0,0,0,0,0,0,0,0,0,0,0,0,0],"sum_hessian":[1.12768586E5,5.085272E4,6.191587E4,4.5827316E4,5.025403E3,5.1773527E4,1.0142341E4,2.7740591E1,4.579958E4,2.7413428E3,2.28406E3,5.0777605E4,9.959213E2,4.772708E3,5.3696333E3,4.578545E4,1.4126297E1,1.9718619E3,7.694809E2,7.5714905E1,2.2083452E3,4.8694574E4,2.0830325E3,2.8887018E2,7.0705115E2,2.7748945E3,1.9978134E3,1.2516602E3,4.117973E3],"tree_param":{"num_deleted":"0","num_feature":"30","num_nodes":"29","size_leaf_vector":"1"}},{"base_weights":[1.3534659E-4,1.5684869E0,-1.2807622E0,1.6748047E0,6.1165214E-1,-1.4570304E0,-1.5461384E-1,-1.6310318E-1,1.6768466E0,9.884818E-1,-1.1925533E0,8.720126E-2,-1.5027182E0,5.961577E-1,-1.1621097E0,1.6778915E-1,-1.584466E-1,-2.026513E-1,1.181275E-1,-1.7871033E-1,1.2529914E-1,1.2802376E-1,-1.7268987E-1,-1.5282588E-1,1.3150285E-2,1.0190298E-1,-5.1542815E-2,-1.5576185E-1,1.6137073E-2],"categories":[],"categories_nodes":[],"categories_segments":[],"categories_sizes":[],"default_left":[0,0,0,0,0,0,0,0,0,0,0,0,0,0,0,0,0,0,0,0,0,0,0,0,0,0,0,0,0],"id":2,"left_children":[1,3,5,7,9,11,13,-1,15,17,19,21,23,25,27,-1,-1,-1,-1,-1,-1,-1,-1,-1,-1,-1,-1,-1,-1],"loss_changes":[2.2168203E5,5.045578E3,1.2057219E4,3.041172E2,3.3751086E3,3.7056016E3,6.219684E3,0E0,1.546875E2,2.3889111E3,1.2495679E3,3.2706628E3,2.1293828E3,2.2153533E3,1.8380898E3,0E0,0E0,0E0,0E0,0E0,0E0,0E0,0E0,0E0,0E0,0E0,0E0,0E0,0E0],"parents":[2147483647,0,0,1,1,2,2,3,3,4,4,5,5,6,6,8,8,9,9,10,10,11,11,12,12,13,13,14,14],"right_children":[2,4,6,8,10,12,14,-1,16,18,20,22,24,26,28,-1,-1,-1,-1,-1,-1,-1,-1,-1,-1,-1,-1,-1,-1],"split_conditions":[-1.7919981E0,-1.4326483E0,1.6183813E0,-6.4566904E-1,3.208446E-1,-9.770104E-1,1.20916135E-4,-1.6310318E-1,1.1040987E0,-7.6180583E-1,1.6210725E0,-2.3424065E-1,2.5015008E0,-2.3424065E-1,9.722859E-1,1.6778915E-1,-1.584466E-1,-2.026513E-1,1.181275E-1,-1.7871033E-1,1.2529914E-1,1.2802376E-1,-1.7268987E-1,-1.5282588E-1,1.3150285E-2,1.0190298E-1,-5.1542815E-2,-1.5576185E-1,1.6137073E-2],"split_indices":[13,11,3,3,14,19,7,0,9,3,28,11,6,11,13,0,0,0,0,0,0,0,0,0,0,0,0,0,0],"split_type":[0,0,0,0,0,0,0,0,0,0,0,0,0,0,0,0,0,0,0,0,0,0,0,0,0,0,0,0,0],"sum_hessian":[1.10348086E5,4.9607562E4,6.0740523E4,4.464601E4,4.961551E3,5.2519688E4,8.220836E3,2.7067127E1,4.4618945E4,4.10469E3,8.56861E2,1.5091749E3,5.101051E4,4.710813E3,3.5100222E3,4.460514E4,1.3803619E1,2.4612682E2,3.858563E3,6.8950165E2,1.6735933E2,9.1060986E2,5.98565E2,5.0225617E4,7.848945E2,3.412649E3,1.2981642E3,2.7022925E3,8.0772974E2],"tree_param":{"num_deleted":"0","num_feature":"30","num_nodes":"29","size_leaf_vector":"1"}},{"base_weights":[2.832417E-4,1.5089064E0,-1.1549622E0,1.5244198E0,-1.7945462E-1,-1.4360975E0,-5.3676605E-1,1.5368637E0,-1.7361827E0,-1.581301E-2,-1.4745942E0,3.7538537E-1,-1.0271943E0,1.5429018E-1,-1.8757401E-1,-1.8428263E-1,-1.5672545E-1,8.040186E-2,-1.7597425E-1,-1.4951383E-1,1.4747324E-2,1.4108299E-1,-1.52204735E-2,2.4313447E-3,-1.3064145E-1],"categories":[],"categories_nodes":[],"categories_segments":[],"categories_sizes":[],"default_left":[0,0,0,0,0,0,0,0,0,0,0,0,0,0,0,0,0,0,0,0,0,0,0,0,0],"id":3,"left_children":[1,3,5,7,-1,9,11,13,15,17,19,21,23,-1,-1,-1,-1,-1,-1,-1,-1,-1,-1,-1,-1],"loss_changes":[1.863177E5,2.3786719E3,1.0521484E4,1.8750156E3,0E0,2.275414E3,8.467625E3,9.501328E2,2.808838E-1,1.5730565E3,1.3504609E3,3.6161357E3,3.6141924E3,0E0,0E0,0E0,0E0,0E0,0E0,0E0,0E0,0E0,0E0,0E0,0E0],"parents":[2147483647,0,0,1,1,2,2,3,3,5,5,6,6,7,7,8,8,9,9,10,10,11,11,12,12],"right_children":[2,4,6,8,-1,10,12,14,16,18,20,22,24,-1,-1,-1,-1,-1,-1,-1,-1,-1,-1,-1,-1],"split_conditions":[-2.2000358E0,1.1040987E0,7.4113834E-1,1.9609543E0,-1.7945462E-1,-1.7919981E0,-4.535324E-1,4.8329878E-1,3.208446E-1,-1.1878401E-1,3.031279E0,-6.642371E-1,-1.1482761E0,1.5429018E-1,-1.8757401E-1,-1.8428263E-1,-1.5672545E-1,8.040186E-2,-1.7597425E-1,-1.4951383E-1,1.4747324E-2,1.4108299E-1,-1.52204735E-2,2.4313447E-3,-1.3064145E-1],"split_indices":[13,9,3,0,0,13,11,11,14,25,6,13,28,0,0,0,0,0,0,0,0,0,0,0,0],"split_type":[0,0,0,0,0,0,0,0,0,0,0,0,0,0,0,0,0,0,0,0,0,0,0,0,0],"sum_hessian":[1.06903266E5,4.636083E4,6.0542438E4,4.6144668E4,2.1616212E2,4.161567E4,1.8926768E4,4.5969754E4,1.7491193E2,1.0982588E3,4.0517414E4,6.618046E3,1.2308721E4,4.588911E4,8.064514E1,1.0114846E2,7.3763466E1,7.4742755E2,3.5083118E2,4.001074E4,5.0667252E2,2.2333044E3,4.384741E3,2.58287E3,9.725851E3],"tree_param":{"num_deleted":"0","num_feature":"30","num_nodes":"25","size_leaf_vector":"1"}},{"base_weights":[4.2142966E-4,1.4245116E0,-1.076872E0,1.4891483E0,6.5946805E-1,-1.348544E0,-4.9271253E-1,1.4908085E0,-2.3849738E0,-4.3662542E-1,1.3803908E0,-1.5153174E-2,-1.3855265E0,4.0971524E-1,-9.182076E-1,1.4920244E-1,-1.4107853E-1,-1.3245152E-1,-2.6792562E-1,2.5662085E-2,-1.8031886E-1,-1.8731451E-1,1.4653708E-1,6.7831986E-2,-1.8279499E-1,5.355387E-3,-1.4087668E-1,9.3607806E-2,-6.854408E-2,-1.04351036E-1,9.218889E-2],"categories":[],"categories_nodes":[],"categories_segments":[],"categories_sizes":[],"default_left":[0,0,0,0,0,0,0,0,0,0,0,0,0,0,0,0,0,0,0,0,0,0,0,0,0,0,0,0,0,0,0],"id":4,"left_children":[1,3,5,7,9,11,13,15,17,19,21,23,25,27,29,-1,-1,-1,-1,-1,-1,-1,-1,-1,-1,-1,-1,-1,-1,-1,-1],"loss_changes":[1.5781833E5,2.189836E3,9.293703E3,2.663047E2,2.729396E3,1.9711875E3,7.1394795E3,1.4616406E2,2.032196E0,1.2992029E3,5.7877563E2,1.3586864E3,1.3009219E3,3.4351921E3,2.9142812E3,0E0,0E0,0E0,0E0,0E0,0E0,0E0,0E0,0E0,0E0,0E0,0E0,0E0,0E0,0E0,0E0],"parents":[2147483647,0,0,1,1,2,2,3,3,4,4,5,5,6,6,7,7,8,8,9,9,10,10,11,11,12,12,13,13,14,14],"right_children":[2,4,6,8,10,12,14,16,18,20,22,24,26,28,30,-1,-1,-1,-1,-1,-1,-1,-1,-1,-1,-1,-1,-1,-1,-1,-1],"split_conditions":[-2.2000358E0,-1.4326483E0,7.4113834E-1,-2.6465015E0,1.8897588E0,-1.7919981E0,-5.629428E-1,1.1040987E0,-8.0922717E-1,1.568236E-2,1.19341284E-1,-8.9035696E-1,-1.3892003E0,3.969329E-1,1.1503273E0,1.4920244E-1,-1.4107853E-1,-1.3245152E-1,-2.6792562E-1,2.5662085E-2,-1.8031886E-1,-1.8731451E-1,1.4653708E-1,6.7831986E-2,-1.8279499E-1,5.355387E-3,-1.4087668E-1,9.3607806E-2,-6.854408E-2,-1.04351036E-1,9.218889E-2],"split_indices":[13,11,3,13,3,13,11,9,3,26,0,2,19,2,22,0,0,0,0,0,0,0,0,0,0,0,0,0,0,0,0],"split_type":[0,0,0,0,0,0,0,0,0,0,0,0,0,0,0,0,0,0,0,0,0,0,0,0,0,0,0,0,0,0,0],"sum_hessian":[1.0286734E5,4.430267E4,5.8564676E4,4.085037E4,3.4523008E3,3.9973223E4,1.8591451E4,4.0833484E4,1.6883276E1,1.3698977E3,2.082403E3,1.0788016E3,3.889442E4,5.957113E3,1.2634339E4,4.0816867E4,1.6617807E1,4.862369E0,1.2020907E1,9.0938586E2,4.6051178E2,5.247076E1,2.0299323E3,7.8075494E2,2.9804666E2,6.181168E2,3.8276305E4,4.0234668E3,1.9336461E3,1.182925E4,8.050888E2],"tree_param":{"num_deleted":"0","num_feature":"30","num_nodes":"31","size_leaf_vector":"1"}},{"base_weights":[6.5677677E-4,1.3562864E0,-1.0090312E0,1.4204115E0,6.1451614E-1,-1.2743526E0,-4.5326573E-1,1.4220551E0,-2.093668E0,-3.985118E-1,1.3040667E0,-6.130245E-1,-1.3462055E0,3.7201312E-1,-8.491851E-1,1.4232203E-1,-1.3451995E-1,-1.2555005E-1,-2.2870398E-1,1.4003773E-1,-8.854891E-2,-1.727522E-1,1.3852553E-1,-1.3272327E-1,1.6681671E-2,1.7862659E-2,-1.3720916E-1,8.504952E-2,-6.2140156E-2,7.6336265E-3,-1.0958E-1],"categories":[],"categories_nodes":[],"categories_segments":[],"categories_sizes":[],"default_left":[0,0,0,0,0,0,0,0,0,0,0,0,0,0,0,0,0,0,0,0,0,0,0,0,0,0,0,0,0,0,0],"id":5,"left_children":[1,3,5,7,9,11,13,15,17,19,21,23,25,27,29,-1,-1,-1,-1,-1,-1,-1,-1,-1,-1,-1,-1,-1,-1,-1,-1],"loss_changes":[1.3467552E5,1.9969297E3,8.31468E3,2.2627344E2,2.336253E3,1.8128945E3,5.95474E3,1.2650781E2,1.2346649E-1,1.1882472E3,4.921338E2,2.084642E3,1.3591562E3,2.8091953E3,2.8110996E3,0E0,0E0,0E0,0E0,0E0,0E0,0E0,0E0,0E0,0E0,0E0,0E0,0E0,0E0,0E0,0E0],"parents":[2147483647,0,0,1,1,2,2,3,3,4,4,5,5,6,6,7,7,8,8,9,9,10,10,11,11,12,12,13,13,14,14],"right_children":[2,4,6,8,10,12,14,16,18,20,22,24,26,28,30,-1,-1,-1,-1,-1,-1,-1,-1,-1,-1,-1,-1,-1,-1,-1,-1],"split_conditions":[-2.2000358E0,-1.4326483E0,7.4113834E-1,-2.6465015E0,1.8897588E0,-1.070659E0,-5.629428E-1,1.1040987E0,-8.0922717E-1,-2.2292297E0,1.19341284E-1,6.774564E-1,-1.3892003E0,3.969329E-1,-1.1482761E0,1.4232203E-1,-1.3451995E-1,-1.2555005E-1,-2.2870398E-1,1.4003773E-1,-8.854891E-2,-1.727522E-1,1.3852553E-1,-1.3272327E-1,1.6681671E-2,1.7862659E-2,-1.3720916E-1,8.504952E-2,-6.2140156E-2,7.6336265E-3,-1.0958E-1],"split_indices":[13,11,3,13,3,13,11,9,3,9,0,29,19,2,28,0,0,0,0,0,0,0,0,0,0,0,0,0,0,0,0],"split_type":[0,0,0,0,0,0,0,0,0,0,0,0,0,0,0,0,0,0,0,0,0,0,0,0,0,0,0,0,0,0,0],"sum_hessian":[9.839014E4,4.199985E4,5.639029E4,3.8657086E4,3.3427651E3,3.816777E4,1.8222521E4,3.863961E4,1.7477844E1,1.3540032E3,1.9887621E3,3.741436E3,3.4426332E4,5.9078643E3,1.2314657E4,3.8623832E4,1.5777211E1,4.6809564E0,1.2796888E1,2.8805508E2,1.0659481E3,5.1342705E1,1.9374193E3,1.9525315E3,1.7889047E3,5.745784E2,3.3851754E4,3.9874417E3,1.9204227E3,2.5911218E3,9.723535E3],"tree_param":{"num_deleted":"0","num_feature":"30","num_nodes":"31","size_leaf_vector":"1"}},{"base_weights":[8.738274E-4,1.2611322E0,-9.801848E-1,1.361044E0,4.516385E-1,-1.2475396E0,-4.4081676E-1,-1.391335E-1,1.3628527E0,7.653514E-1,-1.016587E0,-1.3006152E0,-5.6049174E-1,2.8493044E-1,-8.5133964E-1,-2.1643074E-1,1.3635728E-1,9.486106E-2,-1.6096276E-1,-1.5682967E-1,1.12695254E-1,-1.3438778E-1,-6.950809E-2,4.7812186E-2,-1.407847E-1,9.38969E-2,-4.375682E-2,1.1391663E-2,-1.1348748E-1],"categories":[],"categories_nodes":[],"categories_segments":[],"categories_sizes":[],"default_left":[0,0,0,0,0,0,0,0,0,0,0,0,0,0,0,0,0,0,0,0,0,0,0,0,0,0,0,0,0],"id":6,"left_children":[1,3,5,7,9,11,13,-1,15,17,19,21,23,25,27,-1,-1,-1,-1,-1,-1,-1,-1,-1,-1,-1,-1,-1,-1],"loss_changes":[1.15846195E5,3.316414E3,7.596703E3,1.8363281E2,2.0768752E3,1.2837266E3,5.202699E3,0E0,9.560156E1,1.6181724E3,9.407106E2,8.556367E2,2.2252583E3,2.981902E3,3.0525835E3,0E0,0E0,0E0,0E0,0E0,0E0,0E0,0E0,0E0,0E0,0E0,0E0,0E0,0E0],"parents":[2147483647,0,0,1,1,2,2,3,3,4,4,5,5,6,6,8,8,9,9,10,10,11,11,12,12,13,13,14,14],"right_children":[2,4,6,8,10,12,14,-1,16,18,20,22,24,26,28,-1,-1,-1,-1,-1,-1,-1,-1,-1,-1,-1,-1,-1,-1],"split_conditions":[-1.7919981E0,-1.4326483E0,7.4113834E-1,-6.4566904E-1,3.208446E-1,1.0772138E0,-4.535324E-1,-1.391335E-1,-7.0538425E-1,4.764953E-1,1.6210725E0,1.552171E0,-4.3200237E-1,1.420272E-1,-1.1482761E0,-2.1643074E-1,1.3635728E-1,9.486106E-2,-1.6096276E-1,-1.5682967E-1,1.12695254E-1,-1.3438778E-1,-6.950809E-2,4.7812186E-2,-1.407847E-1,9.38969E-2,-4.375682E-2,1.1391663E-2,-1.1348748E-1],"split_indices":[13,11,3,3,14,18,11,0,10,25,28,28,23,13,28,0,0,0,0,0,0,0,0,0,0,0,0,0,0],"split_type":[0,0,0,0,0,0,0,0,0,0,0,0,0,0,0,0,0,0,0,0,0,0,0,0,0,0,0,0,0],"sum_hessian":[9.3695336E4,4.101175E4,5.2683582E4,3.6505387E4,4.5063623E3,3.5222914E4,1.746067E4,2.346823E1,3.6481918E4,3.713405E3,7.929574E2,3.269619E4,2.5267231E3,6.3084736E3,1.1152197E4,6.832197E0,3.6475086E4,3.4479531E3,2.654519E2,6.3085474E2,1.6210263E2,3.0514832E4,2.1813572E3,1.1354384E3,1.3912849E3,3.310951E3,2.9975227E3,2.5322166E3,8.61998E3],"tree_param":{"num_deleted":"0","num_feature":"30","num_nodes":"29","size_leaf_vector":"1"}},{"base_weights":[9.5060864E-4,1.2519238E0,-8.970862E-1,1.3161542E0,5.485338E-1,-1.1559741E0,-3.8652572E-1,1.3178596E0,-1.9294243E-1,-3.603614E-1,1.1970754E0,-5.106411E-1,-1.2298999E0,1.1659614E-1,-9.853119E-1,1.3190524E-1,-1.3029769E-1,-8.1681535E-2,1.2939684E-1,-1.6547108E-1,1.2769477E-1,-1.208471E-1,2.1189805E-2,-1.2560154E-1,4.320061E-2,1.3151316E-1,-1.9397818E-2,1.2429332E-2,-1.1792999E-1],"categories":[],"categories_nodes":[],"categories_segments":[],"categories_sizes":[],"default_left":[0,0,0,0,0,0,0,0,0,0,0,0,0,0,0,0,0,0,0,0,0,0,0,0,0,0,0,0,0],"id":7,"left_children":[1,3,5,7,9,11,13,15,-1,17,19,21,23,25,27,-1,-1,-1,-1,-1,-1,-1,-1,-1,-1,-1,-1,-1,-1],"loss_changes":[9.983353E4,1.6770273E3,6.8371445E3,1.9089453E2,1.8330654E3,1.6368789E3,5.2440664E3,1.0802734E2,0E0,9.7925854E2,4.1544165E2,1.7799138E3,1.3371406E3,3.5215115E3,1.7109111E3,0E0,0E0,0E0,0E0,0E0,0E0,0E0,0E0,0E0,0E0,0E0,0E0,0E0,0E0],"parents":[2147483647,0,0,1,1,2,2,3,3,4,4,5,5,6,6,7,7,9,9,10,10,11,11,12,12,13,13,14,14],"right_children":[2,4,6,8,10,12,14,16,-1,18,20,22,24,26,28,-1,-1,-1,-1,-1,-1,-1,-1,-1,-1,-1,-1,-1,-1],"split_conditions":[-2.2000358E0,-1.4326483E0,7.4113834E-1,-2.6465015E0,1.8897588E0,-1.070659E0,4.5032944E-3,1.1040987E0,-1.9294243E-1,1.6210725E0,1.19341284E-1,6.774564E-1,3.031279E0,-5.814339E-1,-8.076299E-1,1.3190524E-1,-1.3029769E-1,-8.1681535E-2,1.2939684E-1,-1.6547108E-1,1.2769477E-1,-1.208471E-1,2.1189805E-2,-1.2560154E-1,4.320061E-2,1.3151316E-1,-1.9397818E-2,1.2429332E-2,-1.1792999E-1],"split_indices":[13,11,3,13,3,13,7,9,0,28,0,29,6,6,13,0,0,0,0,0,0,0,0,0,0,0,0,0,0],"split_type":[0,0,0,0,0,0,0,0,0,0,0,0,0,0,0,0,0,0,0,0,0,0,0,0,0,0,0,0,0],"sum_hessian":[8.8863734E4,3.7134562E4,5.1729168E4,3.402654E4,3.1080244E3,3.4323574E4,1.7405592E4,3.400926E4,1.7277376E1,1.2944161E3,1.8136082E3,3.5286006E3,3.0794975E4,9.458784E3,7.9468076E3,3.399429E4,1.497333E1,1.0148973E3,2.7951883E2,4.8874073E1,1.7647341E3,1.7946505E3,1.7339501E3,3.0318783E4,4.7619168E2,1.9459491E3,7.5128345E3,1.182619E3,6.7641885E3],"tree_param":{"num_deleted":"0","num_feature":"30","num_nodes":"29","size_leaf_vector":"1"}},{"base_weights":[1.1581666E-3,1.1713325E0,-8.7627554E-1,1.2731515E0,4.0512577E-1,-1.0349612E0,-1.7365135E-2,-1.2998855E-1,1.2748864E0,-1.6484772E0,6.027909E-1,-4.3489385E-1,-1.1362274E0,-5.854668E-1,7.7849925E-1,1.278231E-1,4.859488E-2,-1.8009281E-1,-1.4413242E-1,8.498936E-2,-8.1084505E-2,3.0071566E-2,-1.0770505E-1,-1.1819289E-1,5.76015E-2,2.7297592E-2,-1.5942125E-1,1.1208141E-1,-6.613549E-2],"categories":[],"categories_nodes":[],"categories_segments":[],"categories_sizes":[],"default_left":[0,0,0,0,0,0,0,0,0,0,0,0,0,0,0,0,0,0,0,0,0,0,0,0,0,0,0,0,0],"id":8,"left_children":[1,3,5,7,9,11,13,-1,15,17,19,21,23,25,27,-1,-1,-1,-1,-1,-1,-1,-1,-1,-1,-1,-1,-1,-1],"loss_changes":[8.642953E4,2.813586E3,6.5566953E3,1.4379297E2,1.7191323E3,2.4668945E3,3.392702E3,0E0,8.333594E1,9.149109E0,1.349647E3,2.7705872E3,2.7192344E3,3.7919028E3,1.5411943E3,0E0,0E0,0E0,0E0,0E0,0E0,0E0,0E0,0E0,0E0,0E0,0E0,0E0,0E0],"parents":[2147483647,0,0,1,1,2,2,3,3,4,4,5,5,6,6,8,8,9,9,10,10,11,11,12,12,13,13,14,14],"right_children":[2,4,6,8,10,12,14,-1,16,18,20,22,24,26,28,-1,-1,-1,-1,-1,-1,-1,-1,-1,-1,-1,-1,-1,-1],"split_conditions":[-1.7919981E0,-1.4326483E0,1.6183813E0,-6.4566904E-1,3.1042192E-2,-8.076299E-1,4.6472216E-1,-1.2998855E-1,-2.6465015E0,3.208446E-1,3.208446E-1,-2.5414237E-1,2.5015008E0,1.0399081E-1,2.2511543E-1,1.278231E-1,4.859488E-2,-1.8009281E-1,-1.4413242E-1,8.498936E-2,-8.1084505E-2,3.0071566E-2,-1.0770505E-1,-1.1819289E-1,5.76015E-2,2.7297592E-2,-1.5942125E-1,1.1208141E-1,-6.613549E-2],"split_indices":[13,11,3,3,17,13,10,0,13,14,14,12,6,5,7,0,0,0,0,0,0,0,0,0,0,0,0,0,0],"split_type":[0,0,0,0,0,0,0,0,0,0,0,0,0,0,0,0,0,0,0,0,0,0,0,0,0,0,0,0,0],"sum_hessian":[8.417574E4,3.6070547E4,4.8105195E4,3.1838904E4,4.231643E3,4.0603418E4,7.50178E3,2.0949705E1,3.1817955E4,3.709009E2,3.860742E3,5.8635234E3,3.4739895E4,4.3773887E3,3.1243909E3,3.1683025E4,1.3492911E2,2.0922876E2,1.6167216E2,3.2866382E3,5.7410364E2,2.7331504E3,3.1303733E3,3.3837055E4,9.0283734E2,2.3652717E3,2.0121171E3,2.5244443E3,5.9994666E2],"tree_param":{"num_deleted":"0","num_feature":"30","num_nodes":"29","size_leaf_vector":"1"}},{"base_weights":[1.2452794E-3,1.1744095E0,-8.0265355E-1,1.2415848E0,4.8942477E-1,-1.0666804E0,-3.1605017E-1,1.2433833E0,-1.8068923E-1,8.271763E-1,-1.0606574E0,-4.5845696E-1,-1.1423757E0,1.282543E-1,-8.704167E-1,1.2446479E-1,-1.2786204E-1,9.884238E-2,-1.3945739E-1,-1.6537108E-1,1.0040162E-1,3.7033034E-3,-1.4202373E-1,-1.1621859E-1,1.23835616E-1,6.1407834E-2,-5.5938374E-2,-1.1254962E-3,-1.1382617E-1],"categories":[],"categories_nodes":[],"categories_segments":[],"categories_sizes":[],"default_left":[0,0,0,0,0,0,0,0,0,0,0,0,0,0,0,0,0,0,0,0,0,0,0,0,0,0,0,0,0],"id":9,"left_children":[1,3,5,7,9,11,13,15,-1,17,19,21,23,25,27,-1,-1,-1,-1,-1,-1,-1,-1,-1,-1,-1,-1,-1,-1],"loss_changes":[7.498696E4,1.4870273E3,6.0612637E3,1.6367188E2,1.5134138E3,1.4075938E3,4.0880156E3,9.544141E1,0E0,8.514121E2,6.3509296E2,1.6140259E3,1.2842266E3,3.0784075E3,1.6991982E3,0E0,0E0,0E0,0E0,0E0,0E0,0E0,0E0,0E0,0E0,0E0,0E0,0E0,0E0],"parents":[2147483647,0,0,1,1,2,2,3,3,4,4,5,5,6,6,7,7,9,9,10,10,11,11,12,12,13,13,14,14],"right_children":[2,4,6,8,10,12,14,16,-1,18,20,22,24,26,28,-1,-1,-1,-1,-1,-1,-1,-1,-1,-1,-1,-1,-1,-1],"split_conditions":[-2.2000358E0,-1.4326483E0,7.4113834E-1,-2.6465015E0,-3.8487813E-1,-1.070659E0,4.5032944E-3,1.1040987E0,-1.8068923E-1,8.320067E-1,7.72957E-1,2.2338564E-2,2.4358234E0,1.420272E-1,-9.3245786E-1,1.2446479E-1,-1.2786204E-1,9.884238E-2,-1.3945739E-1,-1.6537108E-1,1.0040162E-1,3.7033034E-3,-1.4202373E-1,-1.1621859E-1,1.23835616E-1,6.1407834E-2,-5.5938374E-2,-1.1254962E-3,-1.1382617E-1],"split_indices":[13,11,3,13,18,13,7,9,0,14,23,26,18,13,28,0,0,0,0,0,0,0,0,0,0,0,0,0,0],"split_type":[0,0,0,0,0,0,0,0,0,0,0,0,0,0,0,0,0,0,0,0,0,0,0,0,0,0,0,0,0],"sum_hessian":[7.9508695E4,3.2329055E4,4.7179645E4,2.9441012E4,2.8880422E3,3.0583893E4,1.6595752E4,2.9424244E4,1.6766918E1,2.3717268E3,5.1631537E2,3.3857686E3,2.7198123E4,9.2128E3,7.3829526E3,2.9410004E4,1.42409525E1,2.2117593E3,1.5996735E2,4.0125784E2,1.1505756E2,2.2351997E3,1.1505687E3,2.6974182E4,2.2394226E2,5.3986787E3,3.8141208E3,1.7548837E3,5.628069E3],"tree_param":{"num_deleted":"0","num_feature":"30","num_nodes":"29","size_leaf_vector":"1"}},{"base_weights":[1.367636E-3,1.1429952E0,-7.590411E-1,1.2121222E0,4.6115613E-1,-1.0239503E0,-2.909042E-1,1.2139192E0,-1.6760981E-1,-9.870379E-1,8.0682015E-1,-4.2283893E-1,-1.1022146E0,3.189642E-1,-6.6180444E-1,1.21516645E-1,-1.2328937E-1,-1.5969488E-1,1.1713936E-1,9.517561E-2,-1.3755456E-1,-1.1046056E-1,2.3312835E-2,-1.1709478E-1,-2.9859556E-2,5.543806E-2,-1.02938525E-1,1.595858E-2,-9.292196E-2],"categories":[],"categories_nodes":[],"categories_segments":[],"categories_sizes":[],"default_left":[0,0,0,0,0,0,0,0,0,0,0,0,0,0,0,0,0,0,0,0,0,0,0,0,0,0,0,0,0],"id":10,"left_children":[1,3,5,7,9,11,13,15,-1,17,19,21,23,25,27,-1,-1,-1,-1,-1,-1,-1,-1,-1,-1,-1,-1,-1,-1],"loss_changes":[6.5181594E4,1.4142969E3,5.5886387E3,1.4348047E2,1.3848215E3,1.3535156E3,3.6845151E3,8.462109E1,0E0,7.0381116E2,7.0748425E2,1.4837261E3,1.4061699E3,1.9559883E3,2.224898E3,0E0,0E0,0E0,0E0,0E0,0E0,0E0,0E0,0E0,0E0,0E0,0E0,0E0,0E0],"parents":[2147483647,0,0,1,1,2,2,3,3,4,4,5,5,6,6,7,7,9,9,10,10,11,11,12,12,13,13,14,14],"right_children":[2,4,6,8,10,12,14,16,-1,18,20,22,24,26,28,-1,-1,-1,-1,-1,-1,-1,-1,-1,-1,-1,-1,-1,-1],"split_conditions":[-2.2000358E0,-1.4326483E0,7.4113834E-1,-2.6465015E0,6.8442184E-1,-1.070659E0,-4.535324E-1,1.1040987E0,-1.6760981E-1,1.8251818E0,8.320067E-1,6.774564E-1,1.552171E0,1.2759886E0,-1.1482761E0,1.21516645E-1,-1.2328937E-1,-1.5969488E-1,1.1713936E-1,9.517561E-2,-1.3755456E-1,-1.1046056E-1,2.3312835E-2,-1.1709478E-1,-2.9859556E-2,5.543806E-2,-1.02938525E-1,1.595858E-2,-9.292196E-2],"split_indices":[13,11,3,13,3,13,11,9,0,28,14,29,28,2,28,0,0,0,0,0,0,0,0,0,0,0,0,0,0],"split_type":[0,0,0,0,0,0,0,0,0,0,0,0,0,0,0,0,0,0,0,0,0,0,0,0,0,0,0,0,0],"sum_hessian":[7.508304E4,3.0016998E4,4.5066047E4,2.7253201E4,2.7637957E3,2.8779254E4,1.6286791E4,2.7236836E4,1.6365652E1,5.322067E2,2.231589E3,3.3161147E3,2.546314E4,6.159278E3,1.0127513E4,2.7223463E4,1.337402E1,4.1515576E2,1.1705097E2,2.0931426E3,1.3844652E2,1.6257449E3,1.6903698E3,2.3456463E4,2.0066763E3,5.2442427E3,9.150349E2,2.487458E3,7.6400547E3],"tree_param":{"num_deleted":"0","num_feature":"30","num_nodes":"29","size_leaf_vector":"1"}},{"base_weights":[1.4630327E-3,1.0733235E0,-7.492153E-1,1.1881899E0,3.758473E-1,-1.0254079E0,-2.8703856E-1,-1.9972185E0,1.1890589E0,-7.599434E-1,6.833041E-1,-1.0928339E0,-2.2488655E-1,4.4301453E-1,-5.858801E-1,-2.2842284E-1,-8.3249174E-2,1.18997686E-1,-1.18408225E-1,8.44072E-2,-1.6265313E-1,8.097055E-2,-1.4682601E-1,-5.4121822E-2,-1.1768923E-1,8.19672E-2,-1.2376233E-1,-1.432587E-1,7.085235E-2,3.0868134E-2,-9.352252E-2],"categories":[],"categories_nodes":[],"categories_segments":[],"categories_sizes":[],"default_left":[0,0,0,0,0,0,0,0,0,0,0,0,0,0,0,0,0,0,0,0,0,0,0,0,0,0,0,0,0,0,0],"id":11,"left_children":[1,3,5,7,9,11,13,15,17,19,21,23,25,27,29,-1,-1,-1,-1,-1,-1,-1,-1,-1,-1,-1,-1,-1,-1,-1,-1],"loss_changes":[5.6916363E4,2.333793E3,5.3100977E3,7.161719E1,1.4396913E3,1.4052676E3,3.3955667E3,5.037823E-1,5.5890625E1,1.2224104E3,8.8338354E2,1.112957E3,2.1422673E3,2.252288E3,3.4513206E3,0E0,0E0,0E0,0E0,0E0,0E0,0E0,0E0,0E0,0E0,0E0,0E0,0E0,0E0,0E0,0E0],"parents":[2147483647,0,0,1,1,2,2,3,3,4,4,5,5,6,6,7,7,8,8,9,9,10,10,11,11,12,12,13,13,14,14],"right_children":[2,4,6,8,10,12,14,16,18,20,22,24,26,28,30,-1,-1,-1,-1,-1,-1,-1,-1,-1,-1,-1,-1,-1,-1,-1,-1],"split_conditions":[-1.7919981E0,-1.8756604E0,7.4113834E-1,4.8150394E-2,-3.700904E-1,1.0772138E0,-4.2572534E-1,-4.8152965E-2,1.1040987E0,-3.637189E0,5.184878E-1,-4.951196E-1,-4.3200237E-1,-1.0504631E0,-9.3245786E-1,-2.2842284E-1,-8.3249174E-2,1.18997686E-1,-1.18408225E-1,8.44072E-2,-1.6265313E-1,8.097055E-2,-1.4682601E-1,-5.4121822E-2,-1.1768923E-1,8.19672E-2,-1.2376233E-1,-1.432587E-1,7.085235E-2,3.0868134E-2,-9.352252E-2],"split_indices":[13,11,3,10,0,18,13,2,9,13,25,25,23,10,28,0,0,0,0,0,0,0,0,0,0,0,0,0,0,0,0],"split_type":[0,0,0,0,0,0,0,0,0,0,0,0,0,0,0,0,0,0,0,0,0,0,0,0,0,0,0,0,0,0,0],"sum_hessian":[7.073474E4,2.9134477E4,4.160026E4,2.5014215E4,4.1202627E3,2.603861E4,1.5561653E4,6.195544E0,2.500802E4,8.7743115E2,3.2428318E3,2.4015479E4,2.0231307E3,4.5197285E3,1.1041926E4,4.199532E0,1.996012E0,2.4998848E4,9.170845E0,3.0777655E2,5.696546E2,3.0634802E3,1.7935152E2,3.1766719E3,2.0838807E4,9.960126E2,1.0271182E3,5.599249E2,3.9598035E3,3.1011035E3,7.940822E3],"tree_param":{"num_deleted":"0","num_feature":"30","num_nodes":"31","size_leaf_vector":"1"}},{"base_weights":[1.4351677E-3,1.1223534E0,-6.632953E-1,1.1334372E0,-1.3740416E-1,-9.46103E-1,-2.1383148E-1,1.1411394E0,-1.6031927E0,-9.817875E-1,5.6618506E-1,4.406427E-1,-5.4252434E-1,1.1662426E-1,6.9285564E-2,-1.8636948E-1,-1.3666236E-1,-6.4465754E-2,-1.13135E-1,1.2879878E-1,-1.5417784E-1,-5.8300834E-2,8.283387E-2,9.292471E-3,-9.851792E-2],"categories":[],"categories_nodes":[],"categories_segments":[],"categories_sizes":[],"default_left":[0,0,0,0,0,0,0,0,0,0,0,0,0,0,0,0,0,0,0,0,0,0,0,0,0],"id":12,"left_children":[1,3,5,7,-1,9,11,13,15,17,19,21,23,-1,-1,-1,-1,-1,-1,-1,-1,-1,-1,-1,-1],"loss_changes":[4.9665848E4,6.881289E2,5.318455E3,5.225547E2,0E0,1.3865098E3,3.4768235E3,2.7642383E2,1.7515564E0,1.2643906E3,9.0375854E2,2.144955E3,3.0263035E3,0E0,0E0,0E0,0E0,0E0,0E0,0E0,0E0,0E0,0E0,0E0,0E0],"parents":[2147483647,0,0,1,1,2,2,3,3,5,5,6,6,7,7,8,8,9,9,10,10,11,11,12,12],"right_children":[2,4,6,8,-1,10,12,14,16,18,20,22,24,-1,-1,-1,-1,-1,-1,-1,-1,-1,-1,-1,-1],"split_conditions":[-2.6465015E0,1.1040987E0,7.4113834E-1,3.1313148E-1,-1.3740416E-1,3.031279E0,-4.2572534E-1,3.9203346E-1,3.208446E-1,-4.2572534E-1,7.4366397E-1,5.3264964E-1,-1.3166943E-1,1.1662426E-1,6.9285564E-2,-1.8636948E-1,-1.3666236E-1,-6.4465754E-2,-1.13135E-1,1.2879878E-1,-1.5417784E-1,-5.8300834E-2,8.283387E-2,9.292471E-3,-9.851792E-2],"split_indices":[13,9,3,11,0,6,13,6,14,13,5,16,7,0,0,0,0,0,0,0,0,0,0,0,0],"split_type":[0,0,0,0,0,0,0,0,0,0,0,0,0,0,0,0,0,0,0,0,0,0,0,0,0],"sum_hessian":[6.665386E4,2.481249E4,4.1841367E4,2.4703355E4,1.0913408E2,2.56813E4,1.6160066E4,2.4634605E4,6.875134E1,2.5089627E4,5.916735E2,5.4025264E3,1.075754E4,2.3326744E4,1.3078611E3,2.9447123E1,3.9304222E1,7.7117754E3,1.7377852E4,4.4104218E2,1.5063138E2,1.4839315E3,3.918595E3,4.4172246E3,6.340315E3],"tree_param":{"num_deleted":"0","num_feature":"30","num_nodes":"25","size_leaf_vector":"1"}},{"base_weights":[1.5919572E-3,1.0994779E0,-6.2740755E-1,1.1469767E0,4.507683E-1,-9.103944E-1,-1.9701679E-1,1.1482035E0,-1.1309495E-1,8.532542E-1,-1.424695E-1,-1.0912737E0,-5.994888E-1,3.990787E-1,-5.023189E-1,-2.1197188E-1,1.1484714E-1,1.0691204E-1,-1.9256423E-1,-1.1248157E-1,2.1764232E-2,-7.490506E-2,1.1446805E-1,6.996273E-2,-8.0809794E-2,3.2472644E-2,-8.46071E-2],"categories":[],"categories_nodes":[],"categories_segments":[],"categories_sizes":[],"default_left":[0,0,0,0,0,0,0,0,0,0,0,0,0,0,0,0,0,0,0,0,0,0,0,0,0,0,0],"id":13,"left_children":[1,3,5,7,9,11,13,15,-1,17,-1,19,21,23,25,-1,-1,-1,-1,-1,-1,-1,-1,-1,-1,-1,-1],"loss_changes":[4.3410375E4,7.049961E2,4.8673525E3,6.091797E1,1.181627E3,1.3552695E3,2.8856077E3,2.1101562E1,0E0,7.747513E2,0E0,6.69416E2,2.314787E3,1.9490873E3,2.9812185E3,0E0,0E0,0E0,0E0,0E0,0E0,0E0,0E0,0E0,0E0,0E0,0E0],"parents":[2147483647,0,0,1,1,2,2,3,3,4,4,5,5,6,6,7,7,9,9,11,11,12,12,13,13,14,14],"right_children":[2,4,6,8,10,12,14,16,-1,18,-1,20,22,24,26,-1,-1,-1,-1,-1,-1,-1,-1,-1,-1,-1,-1],"split_conditions":[-2.6465015E0,-1.4326483E0,7.4113834E-1,1.1040987E0,3.208446E-1,6.774564E-1,-4.2572534E-1,-7.0538425E-1,-1.1309495E-1,7.2085917E-1,-1.424695E-1,3.031279E0,1.1827754E0,1.6543217E-1,-9.3245786E-1,-2.1197188E-1,1.1484714E-1,1.0691204E-1,-1.9256423E-1,-1.1248157E-1,2.1764232E-2,-7.490506E-2,1.1446805E-1,6.996273E-2,-8.0809794E-2,3.2472644E-2,-8.46071E-2],"split_indices":[13,11,3,9,14,29,13,10,0,6,0,6,18,7,28,0,0,0,0,0,0,0,0,0,0,0,0],"split_type":[0,0,0,0,0,0,0,0,0,0,0,0,0,0,0,0,0,0,0,0,0,0,0,0,0,0,0],"sum_hessian":[6.2859688E4,2.2895695E4,3.9963992E4,2.133292E4,1.5627745E3,2.4110168E4,1.5853824E4,2.1321934E4,1.0987748E1,1.2871001E3,2.756745E2,1.5240818E4,8.86935E3,5.3695645E3,1.048426E4,1.098901E0,2.1320834E4,1.1948951E3,9.2204865E1,1.4860156E4,3.8066272E2,8.1693975E3,6.99952E2,4.299537E3,1.0700275E3,3.078248E3,7.4060117E3],"tree_param":{"num_deleted":"0","num_feature":"30","num_nodes":"27","size_leaf_vector":"1"}},{"base_weights":[1.7333886E-3,1.0015208E0,-6.4124703E-1,1.1292665E0,3.3277452E-1,-8.3079016E-1,8.467734E-3,-1.9213607E0,1.1302576E0,5.8797324E-1,-9.0806365E-1,-4.561512E-1,-1.0312352E0,1.0575943E0,-2.7510285E-1,-7.964632E-2,-2.1974055E-1,1.1311747E-1,-1.1006906E-1,-7.277393E-2,8.344774E-2,-1.3837841E-1,8.4059566E-2,-6.391712E-2,1.3979442E-1,-1.1033849E-1,2.3598226E-2,1.2518522E-1,-1.6894402E-1,-7.478564E-2,6.7619264E-2],"categories":[],"categories_nodes":[],"categories_segments":[],"categories_sizes":[],"default_left":[0,0,0,0,0,0,0,0,0,0,0,0,0,0,0,0,0,0,0,0,0,0,0,0,0,0,0,0,0,0,0],"id":14,"left_children":[1,3,5,7,9,11,13,15,17,19,21,23,25,27,29,-1,-1,-1,-1,-1,-1,-1,-1,-1,-1,-1,-1,-1,-1,-1,-1],"loss_changes":[3.8103215E4,1.981541E3,4.442415E3,6.1066406E1,1.1792294E3,2.0966484E3,2.4243445E3,3.293705E-1,4.1085938E1,1.00210815E3,5.2969354E2,3.3045117E3,1.6635352E3,9.274037E2,2.885557E3,0E0,0E0,0E0,0E0,0E0,0E0,0E0,0E0,0E0,0E0,0E0,0E0,0E0,0E0,0E0,0E0],"parents":[2147483647,0,0,1,1,2,2,3,3,4,4,5,5,6,6,7,7,8,8,9,9,10,10,11,11,12,12,13,13,14,14],"right_children":[2,4,6,8,10,12,14,16,18,20,22,24,26,28,30,-1,-1,-1,-1,-1,-1,-1,-1,-1,-1,-1,-1,-1,-1,-1,-1],"split_conditions":[-1.7919981E0,-1.8756604E0,1.3937783E0,4.8150394E-2,3.208446E-1,-1.2005009E-1,-2.475204E0,-3.8508728E-1,1.1040987E0,-2.6763827E-2,1.6210725E0,1.3115441E0,1.6210725E0,7.6634444E-2,1.008256E0,-7.964632E-2,-2.1974055E-1,1.1311747E-1,-1.1006906E-1,-7.277393E-2,8.344774E-2,-1.3837841E-1,8.4059566E-2,-6.391712E-2,1.3979442E-1,-1.1033849E-1,2.3598226E-2,1.2518522E-1,-1.6894402E-1,-7.478564E-2,6.7619264E-2],"split_indices":[13,11,3,10,14,22,11,3,9,26,28,16,28,25,4,0,0,0,0,0,0,0,0,0,0,0,0,0,0,0,0],"split_type":[0,0,0,0,0,0,0,0,0,0,0,0,0,0,0,0,0,0,0,0,0,0,0,0,0,0,0,0,0,0,0],"sum_hessian":[5.9270906E4,2.3198453E4,3.6072453E4,1.9477184E4,3.7212703E3,2.7925414E4,8.14704E3,5.696856E0,1.9471486E4,3.0869207E3,6.3434973E2,9.73452E3,1.8190895E4,1.732942E3,6.414098E3,1.8880835E0,3.8087726E0,1.9463979E4,7.508161E0,4.86781E2,2.6001396E3,4.988476E2,1.3550217E2,8.86054E3,8.739796E2,1.72111E4,9.7979376E2,1.618998E3,1.13943924E2,4.284899E3,2.1291992E3],"tree_param":{"num_deleted":"0","num_feature":"30","num_nodes":"31","size_leaf_vector":"1"}},{"base_weights":[1.8488684E-3,1.0173918E0,-5.894508E-1,-1.1812043E0,1.066313E0,-7.637041E-1,3.2629314E-1,-1.1605042E-1,-1.455577E-1,1.0480255E0,4.8721504E0,-1.550326E-1,-9.350312E-1,6.718044E-1,-1.0258342E0,1.0798725E-1,-1.2455668E-1,-1.1515393E-1,7.1465963E-1,4.199783E-2,-7.406907E-2,8.912175E-2,-1.0036844E-1,1.0355766E-2,1.1874203E-1,1.2802134E-1,-1.447734E-1],"categories":[],"categories_nodes":[],"categories_segments":[],"categories_sizes":[],"default_left":[0,0,0,0,0,0,0,0,0,0,0,0,0,0,0,0,0,0,0,0,0,0,0,0,0,0,0],"id":15,"left_children":[1,3,5,7,9,11,13,-1,-1,15,17,19,21,23,25,-1,-1,-1,-1,-1,-1,-1,-1,-1,-1,-1,-1],"loss_changes":[3.349319E4,2.2088945E3,5.6253555E3,8.510132E-1,1.3923672E3,3.0882832E3,2.6337761E3,0E0,0E0,1.4610625E3,1.3200024E3,2.1914048E3,2.8984707E3,1.3153419E3,1.1182786E3,0E0,0E0,0E0,0E0,0E0,0E0,0E0,0E0,0E0,0E0,0E0,0E0],"parents":[2147483647,0,0,1,1,2,2,3,3,4,4,5,5,6,6,9,9,10,10,11,11,12,12,13,13,14,14],"right_children":[2,4,6,8,10,12,14,-1,-1,16,18,20,22,24,26,-1,-1,-1,-1,-1,-1,-1,-1,-1,-1,-1,-1],"split_conditions":[-1.4092972E0,-1.3220327E0,2.442026E0,2.5015008E0,1.9417264E0,-8.076299E-1,8.676051E-1,-1.1605042E-1,-1.455577E-1,-1.55388E-1,-2.4825677E-1,-2.5414237E-1,-1.1461864E0,4.6472216E-1,-9.682669E-1,1.0798725E-1,-1.2455668E-1,-1.1515393E-1,7.1465963E-1,4.199783E-2,-7.406907E-2,8.912175E-2,-1.0036844E-1,1.0355766E-2,1.1874203E-1,1.2802134E-1,-1.447734E-1],"split_indices":[9,3,3,6,2,13,2,0,0,2,0,12,19,10,20,0,0,0,0,0,0,0,0,0,0,0,0],"split_type":[0,0,0,0,0,0,0,0,0,0,0,0,0,0,0,0,0,0,0,0,0,0,0,0,0,0,0],"sum_hessian":[5.5774414E4,2.0524078E4,3.5250336E4,4.4623886E2,2.007784E4,2.961515E4,5.6351865E3,4.1979684E2,2.6441994E1,1.9983094E4,9.474597E1,6.5054E3,2.310975E4,4.488688E3,1.1464985E3,1.9709947E4,2.7314734E2,2.6104353E1,6.864162E1,3.2826807E3,3.2227192E3,8.368428E2,2.2272906E4,2.1359326E3,2.3527554E3,1.7700089E2,9.694977E2],"tree_param":{"num_deleted":"0","num_feature":"30","num_nodes":"27","size_leaf_vector":"1"}},{"base_weights":[1.4801748E-3,1.0463095E0,-5.3477067E-1,1.101316E0,3.713287E-1,-8.861365E-1,-2.0641929E-1,1.1026137E0,-1.0704392E-1,7.224627E-1,-1.5645431E0,-9.673067E-1,1.7268874E-1,4.7073388E-1,-4.2539173E-1,-1.8518586E-1,1.1029442E-1,9.8148175E-2,-1.3334669E-1,-1.835364E-1,-1.3452692E-1,-8.1976916E-4,-1.05223276E-1,1.4312638E-1,-1.1928659E-1,7.600771E-2,-1.4237651E-1,6.2057912E-2,-6.7626834E-2],"categories":[],"categories_nodes":[],"categories_segments":[],"categories_sizes":[],"default_left":[0,0,0,0,0,0,0,0,0,0,0,0,0,0,0,0,0,0,0,0,0,0,0,0,0,0,0,0,0],"id":16,"left_children":[1,3,5,7,9,11,13,15,-1,17,19,21,23,25,27,-1,-1,-1,-1,-1,-1,-1,-1,-1,-1,-1,-1,-1,-1],"loss_changes":[2.9463121E4,6.6178516E2,4.0089941E3,4.7654297E1,9.1569653E2,1.4428818E3,2.6639666E3,1.8136719E1,0E0,6.08151E2,9.816772E0,1.2699629E3,2.0573591E3,2.4076318E3,3.5627505E3,0E0,0E0,0E0,0E0,0E0,0E0,0E0,0E0,0E0,0E0,0E0,0E0,0E0,0E0],"parents":[2147483647,0,0,1,1,2,2,3,3,4,4,5,5,6,6,7,7,9,9,10,10,11,11,12,12,13,13,14,14],"right_children":[2,4,6,8,10,12,14,16,-1,18,20,22,24,26,28,-1,-1,-1,-1,-1,-1,-1,-1,-1,-1,-1,-1,-1,-1],"split_conditions":[-2.6465015E0,-1.4326483E0,3.8232008E-1,1.1040987E0,7.2085917E-1,1.1827754E0,-5.442865E-1,-7.0538425E-1,-1.0704392E-1,3.208446E-1,3.208446E-1,-1.4521915E0,-4.8285896E-1,4.7005028E-2,-3.4123498E-1,-1.8518586E-1,1.1029442E-1,9.8148175E-2,-1.3334669E-1,-1.835364E-1,-1.3452692E-1,-8.1976916E-4,-1.05223276E-1,1.4312638E-1,-1.1928659E-1,7.600771E-2,-1.4237651E-1,6.2057912E-2,-6.7626834E-2],"split_indices":[13,11,3,9,6,18,9,10,0,14,14,9,6,26,19,0,0,0,0,0,0,0,0,0,0,0,0,0,0],"split_type":[0,0,0,0,0,0,0,0,0,0,0,0,0,0,0,0,0,0,0,0,0,0,0,0,0,0,0,0,0],"sum_hessian":[5.2583434E4,1.7834264E4,3.474917E4,1.648982E4,1.3444443E3,1.678548E4,1.796369E4,1.6480465E4,9.355454E0,1.1385565E3,2.0588783E2,1.5590397E4,1.1950831E3,4.3892295E3,1.357446E4,1.2165065E0,1.6479248E4,1.0116278E3,1.2692868E2,8.8819016E1,1.1706882E2,1.2682762E3,1.4322121E4,6.218769E2,5.732063E2,3.808208E3,5.810214E2,2.6257095E3,1.0948751E4],"tree_param":{"num_deleted":"0","num_feature":"30","num_nodes":"29","size_leaf_vector":"1"}},{"base_weights":[1.4588874E-3,1.0326232E0,-5.039988E-1,1.089094E0,3.5722858E-1,-7.9335696E-1,-1.2020355E-1,1.0903925E0,-1.0458604E-1,6.960806E-1,-1.4971409E0,-1.0149015E0,-4.3685868E-1,2.87539E-1,-4.795784E-1,-1.6938546E-1,1.0907425E-1,9.451988E-2,-1.2926179E-1,-1.8883733E-1,-1.3747391E-1,-1.05243064E-1,1.6948046E-2,-6.026839E-2,1.2682287E-1,8.2837455E-2,-3.0739877E-2,4.6893146E-2,-7.812072E-2],"categories":[],"categories_nodes":[],"categories_segments":[],"categories_sizes":[],"default_left":[0,0,0,0,0,0,0,0,0,0,0,0,0,0,0,0,0,0,0,0,0,0,0,0,0,0,0,0,0],"id":17,"left_children":[1,3,5,7,9,11,13,15,-1,17,19,21,23,25,27,-1,-1,-1,-1,-1,-1,-1,-1,-1,-1,-1,-1,-1,-1],"loss_changes":[2.5893574E4,6.2288477E2,3.7022373E3,4.294336E1,7.9429E2,1.5007627E3,2.1001958E3,1.6539062E1,0E0,5.303591E2,6.759308E0,5.2119336E2,2.0610366E3,2.160786E3,2.1798706E3,0E0,0E0,0E0,0E0,0E0,0E0,0E0,0E0,0E0,0E0,0E0,0E0,0E0,0E0],"parents":[2147483647,0,0,1,1,2,2,3,3,4,4,5,5,6,6,7,7,9,9,10,10,11,11,12,12,13,13,14,14],"right_children":[2,4,6,8,10,12,14,16,-1,18,20,22,24,26,28,-1,-1,-1,-1,-1,-1,-1,-1,-1,-1,-1,-1,-1,-1],"split_conditions":[-2.6465015E0,-1.4326483E0,7.4113834E-1,1.1040987E0,7.2085917E-1,6.774564E-1,-1.0937736E-1,-7.0538425E-1,-1.0458604E-1,3.208446E-1,-7.160597E-1,3.031279E0,1.552171E0,-6.581106E-2,-8.076299E-1,-1.6938546E-1,1.0907425E-1,9.451988E-2,-1.2926179E-1,-1.8883733E-1,-1.3747391E-1,-1.05243064E-1,1.6948046E-2,-6.026839E-2,1.2682287E-1,8.2837455E-2,-3.0739877E-2,4.6893146E-2,-7.812072E-2],"split_indices":[13,11,3,9,6,29,7,10,0,14,8,6,28,24,13,0,0,0,0,0,0,0,0,0,0,0,0,0,0],"split_type":[0,0,0,0,0,0,0,0,0,0,0,0,0,0,0,0,0,0,0,0,0,0,0,0,0,0,0,0,0],"sum_hessian":[4.9677742E4,1.6340695E4,3.3337047E4,1.5079278E4,1.2614163E3,1.9006354E4,1.4330693E4,1.5070603E4,8.676265E0,1.0670559E3,1.9436029E2,1.1720713E4,7.285641E3,6.7136567E3,7.6170366E3,1.2863399E0,1.5069316E4,9.487354E2,1.1832048E2,4.2878933E1,1.5148135E2,1.1360838E4,3.5987582E2,6.6404795E3,6.451615E2,3.5165244E3,3.197132E3,1.8376765E3,5.7793604E3],"tree_param":{"num_deleted":"0","num_feature":"30","num_nodes":"29","size_leaf_vector":"1"}},{"base_weights":[1.5557146E-3,1.0200742E0,-4.751507E-1,1.0781071E0,3.4376782E-1,-8.277619E-1,-1.7164236E-1,1.079408E0,-1.0228943E-1,6.705708E-1,-1.4402055E0,-9.1648E-1,2.349742E-1,-3.3014965E-1,6.9725674E-1,-1.5608983E-1,1.0797781E-1,9.098082E-2,-1.257355E-1,-1.635521E-1,-1.266173E-1,3.8763117E-3,-1.0104536E-1,1.3190213E-1,-1.1621068E-1,-7.851652E-2,1.4633507E-2,5.1596034E-1,5.389098E-2],"categories":[],"categories_nodes":[],"categories_segments":[],"categories_sizes":[],"default_left":[0,0,0,0,0,0,0,0,0,0,0,0,0,0,0,0,0,0,0,0,0,0,0,0,0,0,0,0,0],"id":18,"left_children":[1,3,5,7,9,11,13,15,-1,17,19,21,23,25,27,-1,-1,-1,-1,-1,-1,-1,-1,-1,-1,-1,-1,-1,-1],"loss_changes":[2.2782393E4,5.8676855E2,3.4205078E3,3.876172E1,6.9106824E2,1.3942041E3,2.3661792E3,1.5138672E1,0E0,4.6288773E2,4.1694336E0,1.2250117E3,1.7280079E3,3.1501064E3,1.8701405E3,0E0,0E0,0E0,0E0,0E0,0E0,0E0,0E0,0E0,0E0,0E0,0E0,0E0,0E0],"parents":[2147483647,0,0,1,1,2,2,3,3,4,4,5,5,6,6,7,7,9,9,10,10,11,11,12,12,13,13,14,14],"right_children":[2,4,6,8,10,12,14,16,-1,18,20,22,24,26,28,-1,-1,-1,-1,-1,-1,-1,-1,-1,-1,-1,-1,-1,-1],"split_conditions":[-2.6465015E0,-1.4326483E0,3.8232008E-1,1.1040987E0,7.2085917E-1,1.1827754E0,1.0857303E0,-7.0538425E-1,-1.0228943E-1,3.208446E-1,3.208446E-1,-1.4521915E0,-4.3200237E-1,3.0306548E-1,3.9301437E-1,-1.5608983E-1,1.0797781E-1,9.098082E-2,-1.257355E-1,-1.635521E-1,-1.266173E-1,3.8763117E-3,-1.0104536E-1,1.3190213E-1,-1.1621068E-1,-7.851652E-2,1.4633507E-2,5.1596034E-1,5.389098E-2],"split_indices":[13,11,3,9,6,18,6,10,0,14,14,9,23,16,3,0,0,0,0,0,0,0,0,0,0,0,0,0,0],"split_type":[0,0,0,0,0,0,0,0,0,0,0,0,0,0,0,0,0,0,0,0,0,0,0,0,0,0,0,0,0],"sum_hessian":[4.692031E4,1.4958731E4,3.1961578E4,1.3776038E4,1.1826937E3,1.4784015E4,1.7177562E4,1.3767999E4,8.039214E0,1.0001095E3,1.825842E2,1.3645053E4,1.1389625E3,1.4527949E4,2.6496138E3,1.3385533E0,1.376666E4,8.9017523E2,1.0993427E2,8.207459E1,1.005096E2,1.2221781E3,1.2422874E4,6.413619E2,4.9760065E2,7.431063E3,7.0968867E3,8.97175E1,2.5598962E3],"tree_param":{"num_deleted":"0","num_feature":"30","num_nodes":"29","size_leaf_vector":"1"}},{"base_weights":[1.352008E-3,9.434276E-1,-4.8047155E-1,-1.1511544E0,9.979259E-1,-6.5099734E-1,3.2602596E-1,-1.1301135E-1,-1.3945426E-1,1.1171983E0,3.1637156E-1,-7.0163324E-2,-8.368803E-1,6.3248324E-1,-9.1343087E-1,1.09067015E-1,4.2540842E-1,8.195746E-2,-1.3515496E-1,5.2236445E-2,-5.6281E-2,3.0522376E-2,-9.640391E-2,1.2496372E-2,1.12447165E-1,-1.376529E-1,1.2623772E-1],"categories":[],"categories_nodes":[],"categories_segments":[],"categories_sizes":[],"default_left":[0,0,0,0,0,0,0,0,0,0,0,0,0,0,0,0,0,0,0,0,0,0,0,0,0,0,0],"id":19,"left_children":[1,3,5,7,9,11,13,-1,-1,15,17,19,21,23,25,-1,-1,-1,-1,-1,-1,-1,-1,-1,-1,-1,-1],"loss_changes":[2.0190717E4,1.7193203E3,4.0476265E3,3.8116455E-1,1.1922266E3,2.622833E3,1.9518931E3,0E0,0E0,1.0343291E3,1.8361453E3,1.7198558E3,2.6730254E3,1.0284487E3,1.0282843E3,0E0,0E0,0E0,0E0,0E0,0E0,0E0,0E0,0E0,0E0,0E0,0E0],"parents":[2147483647,0,0,1,1,2,2,3,3,4,4,5,5,6,6,9,9,10,10,11,11,12,12,13,13,14,14],"right_children":[2,4,6,8,10,12,14,-1,-1,16,18,20,22,24,26,-1,-1,-1,-1,-1,-1,-1,-1,-1,-1,-1,-1],"split_conditions":[-1.4092972E0,-1.3220327E0,2.442026E0,2.5015008E0,-5.5435133E-1,-8.076299E-1,8.676051E-1,-1.1301135E-1,-1.3945426E-1,-5.6698406E-1,-1.7919981E0,-3.217987E-1,-5.0203353E-1,4.6472216E-1,1.1712439E0,1.09067015E-1,4.2540842E-1,8.195746E-2,-1.3515496E-1,5.2236445E-2,-5.6281E-2,3.0522376E-2,-9.640391E-2,1.2496372E-2,1.12447165E-1,-1.376529E-1,1.2623772E-1],"split_indices":[9,3,3,6,15,13,2,0,0,15,13,11,19,10,21,0,0,0,0,0,0,0,0,0,0,0,0],"split_type":[0,0,0,0,0,0,0,0,0,0,0,0,0,0,0,0,0,0,0,0,0,0,0,0,0,0,0],"sum_hessian":[4.447935E4,1.5050741E4,2.942861E4,3.811594E2,1.4669582E4,2.4292416E4,5.1361943E3,3.5602432E2,2.5135046E1,1.2484199E4,2.1853828E3,5.88979E3,1.8402625E4,4.1184033E3,1.0177909E3,1.2380844E4,1.0335548E2,1.6792657E3,5.0611697E2,2.6738152E3,3.215975E3,1.8434933E3,1.6559133E4,2.0278214E3,2.090582E3,8.3948303E2,1.7830789E2],"tree_param":{"num_deleted":"0","num_feature":"30","num_nodes":"27","size_leaf_vector":"1"}},{"base_weights":[1.1488254E-3,9.246336E-1,-4.54863E-1,1.0723912E0,1.7094454E-1,6.029239E-1,-5.7198304E-1,-1.1270553E-1,1.1002083E0,7.683582E-1,-1.2636696E0,8.6713034E-1,-1.2097044E0,5.0870394E-3,-7.7041286E-1,1.0776167E-1,3.1028426E-1,9.4475456E-2,-5.1508565E-2,-1.17255904E-1,-1.69442E-1,5.265665E-3,1.2926579E-1,-1.8218745E-1,-1.17376424E-1,2.0210404E-2,-1.2735884E-1,-8.93522E-2,2.9191477E-2],"categories":[],"categories_nodes":[],"categories_segments":[],"categories_sizes":[],"default_left":[0,0,0,0,0,0,0,0,0,0,0,0,0,0,0,0,0,0,0,0,0,0,0,0,0,0,0,0,0],"id":20,"left_children":[1,3,5,7,9,11,13,-1,15,17,19,21,23,25,27,-1,-1,-1,-1,-1,-1,-1,-1,-1,-1,-1,-1,-1,-1],"loss_changes":[1.7680045E4,1.5453369E3,3.4822437E3,7.111504E2,1.9516235E3,1.3430164E3,2.8975176E3,0E0,5.15084E2,3.644098E2,2.428894E1,8.477544E2,5.713806E0,1.6316025E3,2.4628135E3,0E0,0E0,0E0,0E0,0E0,0E0,0E0,0E0,0E0,0E0,0E0,0E0,0E0,0E0],"parents":[2147483647,0,0,1,1,2,2,3,3,4,4,5,5,6,6,8,8,9,9,10,10,11,11,12,12,13,13,14,14],"right_children":[2,4,6,8,10,12,14,-1,16,18,20,22,24,26,28,-1,-1,-1,-1,-1,-1,-1,-1,-1,-1,-1,-1,-1,-1],"split_conditions":[-1.4092972E0,-5.5435133E-1,-1.4749148E0,-1.3220327E0,-1.7919981E0,1.5270767E-1,-8.076299E-1,-1.1270553E-1,-5.6698406E-1,-7.066006E-2,7.4113834E-1,-1.24537095E-1,-1.8985626E0,1.2160877E0,6.2266856E-1,1.0776167E-1,3.1028426E-1,9.4475456E-2,-5.1508565E-2,-1.17255904E-1,-1.69442E-1,5.265665E-3,1.2926579E-1,-1.8218745E-1,-1.17376424E-1,2.0210404E-2,-1.2735884E-1,-8.93522E-2,2.9191477E-2],"split_indices":[9,15,18,3,13,14,13,0,15,21,3,16,13,2,19,0,0,0,0,0,0,0,0,0,0,0,0,0,0],"split_type":[0,0,0,0,0,0,0,0,0,0,0,0,0,0,0,0,0,0,0,0,0,0,0,0,0,0,0,0,0],"sum_hessian":[4.198139E4,1.3877193E4,2.8104195E4,1.1602207E4,2.2749866E3,2.8011401E3,2.5303055E4,1.4441061E2,1.1457796E4,1.6064712E3,6.685153E2,2.4452458E3,3.5589435E2,6.474628E3,1.8828428E4,1.1331504E4,1.26292305E2,1.412589E3,1.9388222E2,5.54873E2,1.13642296E2,8.395134E2,1.6057324E3,1.6980114E1,3.389142E2,5.610942E3,8.636862E2,1.6873215E4,1.9552135E3],"tree_param":{"num_deleted":"0","num_feature":"30","num_nodes":"29","size_leaf_vector":"1"}},{"base_weights":[1.1397947E-3,1.0097812E0,-3.871679E-1,1.0495374E0,2.5665343E-1,-7.666789E-1,-9.394872E-2,1.0526547E0,-4.6581397E0,9.2668825E-1,-1.396192E0,-8.670575E-1,3.1700936E-1,-2.0051083E-1,9.0168583E-1,1.0559117E-1,-1.5735903E-1,-5.576876E-1,-9.9863455E-2,-4.314367E-1,9.789615E-2,-1.7262721E-1,-1.2503166E-1,-1.2148182E-3,-9.649489E-2,1.3345367E-1,-1.1500507E-1,-6.465932E-2,9.971873E-3,1.219471E-1,-1.5182059E-1],"categories":[],"categories_nodes":[],"categories_segments":[],"categories_sizes":[],"default_left":[0,0,0,0,0,0,0,0,0,0,0,0,0,0,0,0,0,0,0,0,0,0,0,0,0,0,0,0,0,0,0],"id":21,"left_children":[1,3,5,7,9,11,13,15,17,19,21,23,25,27,29,-1,-1,-1,-1,-1,-1,-1,-1,-1,-1,-1,-1,-1,-1,-1,-1],"loss_changes":[1.5579037E4,3.3078223E2,3.1958853E3,1.917627E2,6.167307E2,1.3619585E3,1.71928E3,9.144824E1,1.4324463E1,1.127204E2,5.579193E0,9.587998E2,1.586753E3,1.9604061E3,1.20667E3,0E0,0E0,0E0,0E0,0E0,0E0,0E0,0E0,0E0,0E0,0E0,0E0,0E0,0E0,0E0,0E0],"parents":[2147483647,0,0,1,1,2,2,3,3,4,4,5,5,6,6,7,7,8,8,9,9,10,10,11,11,12,12,13,13,14,14],"right_children":[2,4,6,8,10,12,14,16,18,20,22,24,26,28,30,-1,-1,-1,-1,-1,-1,-1,-1,-1,-1,-1,-1,-1,-1,-1,-1],"split_conditions":[-3.0596282E0,5.3320074E-1,3.8232008E-1,2.1259115E0,-1.4326483E0,1.1827754E0,7.689492E-1,3.1313148E-1,2.7486637E-1,1.049156E0,3.208446E-1,-1.4521915E0,-4.8285896E-1,-1.8868273E-2,2.835941E-1,1.0559117E-1,-1.5735903E-1,-5.576876E-1,-9.9863455E-2,-4.314367E-1,9.789615E-2,-1.7262721E-1,-1.2503166E-1,-1.2148182E-3,-9.649489E-2,1.3345367E-1,-1.1500507E-1,-6.465932E-2,9.971873E-3,1.219471E-1,-1.5182059E-1],"split_indices":[13,6,3,15,11,18,22,11,14,10,14,9,6,4,24,0,0,0,0,0,0,0,0,0,0,0,0,0,0,0,0],"split_type":[0,0,0,0,0,0,0,0,0,0,0,0,0,0,0,0,0,0,0,0,0,0,0,0,0,0,0,0,0,0,0],"sum_hessian":[3.977462E4,1.1055642E4,2.8718979E4,1.0500925E4,5.5471735E2,1.2516877E4,1.6202101E4,1.0496008E4,4.9170175E0,3.9502173E2,1.596956E2,1.1455949E4,1.060928E3,1.4636377E4,1.5657231E3,1.04836045E4,1.2403314E1,3.511497E0,1.4055203E0,3.095776E0,3.9192593E2,4.562456E1,1.14071045E2,1.1771077E3,1.0278842E4,6.264934E2,4.344346E2,5.887521E3,8.748856E3,1.384415E3,1.8130812E2],"tree_param":{"num_deleted":"0","num_feature":"30","num_nodes":"31","size_leaf_vector":"1"}},{"base_weights":[1.1287845E-3,9.553797E-1,-3.836264E-1,1.0048015E0,-1.3550483E0,3.1029304E-2,-6.6423297E-1,1.0565726E0,-2.6786706E-1,-1.174772E0,-1.6660866E0,2.092374E-1,-1.1111774E0,-8.27518E-1,4.3218762E-1,-1.0772065E-1,1.0674671E-1,1.02934055E-1,-1.322619E-1,-1.0687937E-1,-1.290826E-1,-1.9028376E-1,-1.4423324E-1,1.2024422E-2,2.552248E-1,-1.2565312E-1,9.468109E-2,-9.8954484E-2,-1.103232E-2,8.764581E-2,-1.2021885E-1],"categories":[],"categories_nodes":[],"categories_segments":[],"categories_sizes":[],"default_left":[0,0,0,0,0,0,0,0,0,0,0,0,0,0,0,0,0,0,0,0,0,0,0,0,0,0,0,0,0,0,0],"id":22,"left_children":[1,3,5,7,9,11,13,15,17,19,21,23,25,27,29,-1,-1,-1,-1,-1,-1,-1,-1,-1,-1,-1,-1,-1,-1,-1,-1],"loss_changes":[1.389139E4,1.2427627E3,3.1373792E3,7.0163086E2,1.0833527E1,2.215561E3,2.8793608E3,2.3893457E2,5.717599E2,4.3823242E-1,1.5627289E0,1.962918E3,4.4062817E2,1.626419E3,1.515076E3,0E0,0E0,0E0,0E0,0E0,0E0,0E0,0E0,0E0,0E0,0E0,0E0,0E0,0E0,0E0,0E0],"parents":[2147483647,0,0,1,1,2,2,3,3,4,4,5,5,6,6,7,7,8,8,9,9,10,10,11,11,12,12,13,13,14,14],"right_children":[2,4,6,8,10,12,14,16,18,20,22,24,26,28,30,-1,-1,-1,-1,-1,-1,-1,-1,-1,-1,-1,-1,-1,-1,-1,-1],"split_conditions":[-2.475204E0,1.5848378E0,-4.2572534E-1,8.981508E-1,1.6183813E0,5.451428E-1,1.27867E0,-4.8610923E-1,-3.0596282E0,7.4113834E-1,3.8463718E-1,5.1395625E-1,1.7794089E0,1.8897588E0,2.9480442E-2,-1.0772065E-1,1.0674671E-1,1.02934055E-1,-1.322619E-1,-1.0687937E-1,-1.290826E-1,-1.9028376E-1,-1.4423324E-1,1.2024422E-2,2.552248E-1,-1.2565312E-1,9.468109E-2,-9.8954484E-2,-1.103232E-2,8.764581E-2,-1.2021885E-1],"split_indices":[11,13,13,8,3,9,6,3,13,3,2,9,21,3,11,0,0,0,0,0,0,0,0,0,0,0,0,0,0,0,0],"split_type":[0,0,0,0,0,0,0,0,0,0,0,0,0,0,0,0,0,0,0,0,0,0,0,0,0,0,0,0,0,0,0],"sum_hessian":[3.7833426E4,1.0870776E4,2.6962648E4,1.0643665E4,2.2711096E2,1.0882435E4,1.6080215E4,1.0227778E4,4.1588715E2,1.4680212E2,8.0308846E1,9.414407E3,1.4680271E3,1.3996086E4,2.0841287E3,5.145805E1,1.017632E4,1.8651816E2,2.2936899E2,8.2068306E1,6.473382E1,3.537498E1,4.493387E1,9.070923E3,3.434842E2,1.3715458E3,9.648144E1,1.1416516E4,2.57957E3,1.6390511E3,4.4507755E2],"tree_param":{"num_deleted":"0","num_feature":"30","num_nodes":"31","size_leaf_vector":"1"}},{"base_weights":[7.5496576E-4,1.0286059E0,-3.325142E-1,1.0362101E0,-1.13561414E-1,-7.196478E-1,-6.1598975E-2,1.0374757E0,-2.0287772E-1,-8.268899E-1,3.439885E-1,1.1371092E0,-1.496206E-1,1.0477926E-1,7.437437E-2,-9.870164E-2,-2.4963133E-2,-1.16294585E-1,1.2951285E-1,8.78206E-2,3.0709827E-1,-9.160458E-2,9.858622E-3],"categories":[],"categories_nodes":[],"categories_segments":[],"categories_sizes":[],"default_left":[0,0,0,0,0,0,0,0,0,0,0,0,0,0,0,0,0,0,0,0,0,0,0],"id":23,"left_children":[1,3,5,7,-1,9,11,13,-1,15,17,19,21,-1,-1,-1,-1,-1,-1,-1,-1,-1,-1],"loss_changes":[1.2318911E4,1.4608594E2,2.848186E3,3.6143555E1,0E0,1.2755796E3,1.6860093E3,2.5802734E1,0E0,9.3856836E2,1.4702429E3,5.446052E2,2.8318E3,0E0,0E0,0E0,0E0,0E0,0E0,0E0,0E0,0E0,0E0],"parents":[2147483647,0,0,1,1,2,2,3,3,5,5,6,6,7,7,9,9,10,10,11,11,12,12],"right_children":[2,4,6,8,-1,10,12,14,-1,16,18,20,22,-1,-1,-1,-1,-1,-1,-1,-1,-1,-1],"split_conditions":[-3.637189E0,1.0319313E0,3.8232008E-1,1.9609543E0,-1.13561414E-1,1.1827754E0,-2.0439138E0,7.67661E-1,-2.0287772E-1,1.0297889E0,-5.9400344E-1,6.957875E-1,-2.8279725E-1,1.0477926E-1,7.437437E-2,-9.870164E-2,-2.4963133E-2,-1.16294585E-1,1.2951285E-1,8.78206E-2,3.0709827E-1,-9.160458E-2,9.858622E-3],"split_indices":[13,9,3,0,0,18,15,6,0,28,3,23,4,0,0,0,0,0,0,0,0,0,0],"split_type":[0,0,0,0,0,0,0,0,0,0,0,0,0,0,0,0,0,0,0,0,0,0,0],"sum_hessian":[3.596027E4,8.804332E3,2.7155938E4,8.774025E3,3.0306889E1,1.1179273E4,1.5976665E4,8.771065E3,2.9602835E0,1.0155554E4,1.02372003E3,1.0921041E3,1.4884561E4,8.470969E3,3.0009656E2,7.9496733E3,2.2058801E3,3.9603732E2,6.276827E2,9.6444073E2,1.27663345E2,3.6405134E3,1.1244047E4],"tree_param":{"num_deleted":"0","num_feature":"30","num_nodes":"23","size_leaf_vector":"1"}},{"base_weights":[6.1602396E-4,8.7317234E-1,-3.6520573E-1,1.0459298E0,1.2335861E-1,-5.9825456E-1,1.1166423E-1,-1.0972438E-1,1.0764909E0,6.905588E-1,-1.2259266E0,-8.063713E-1,-4.607872E-2,-6.262073E-1,5.268969E-1,1.0490421E-1,2.6686236E-1,8.765871E-2,-4.1636866E-2,-1.14456885E-1,-1.5789668E-1,-9.361557E-2,2.8016532E-2,6.003935E-2,-5.767364E-2,-9.288782E-2,7.222384E-2,-1.1967871E-1,6.716492E-2],"categories":[],"categories_nodes":[],"categories_segments":[],"categories_sizes":[],"default_left":[0,0,0,0,0,0,0,0,0,0,0,0,0,0,0,0,0,0,0,0,0,0,0,0,0,0,0,0,0],"id":24,"left_children":[1,3,5,7,9,11,13,-1,15,17,19,21,23,25,27,-1,-1,-1,-1,-1,-1,-1,-1,-1,-1,-1,-1,-1,-1],"loss_changes":[1.0958349E4,1.3135488E3,2.6883147E3,5.4102734E2,1.4550818E3,1.8672119E3,2.4335369E3,0E0,3.5236133E2,2.7597723E2,1.4355896E1,1.6643604E3,1.5265476E3,1.1680265E3,1.2688892E3,0E0,0E0,0E0,0E0,0E0,0E0,0E0,0E0,0E0,0E0,0E0,0E0,0E0,0E0],"parents":[2147483647,0,0,1,1,2,2,3,3,4,4,5,5,6,6,8,8,9,9,10,10,11,11,12,12,13,13,14,14],"right_children":[2,4,6,8,10,12,14,-1,16,18,20,22,24,26,28,-1,-1,-1,-1,-1,-1,-1,-1,-1,-1,-1,-1,-1,-1],"split_conditions":[-1.4092972E0,-5.5435133E-1,5.545181E-1,-1.3220327E0,-1.7919981E0,1.3937783E0,1.6873795E-1,-1.0972438E-1,-5.6698406E-1,-7.066006E-2,7.4113834E-1,1.552171E0,-6.03185E-1,1.51742E0,-1.0109346E0,1.0490421E-1,2.6686236E-1,8.765871E-2,-4.1636866E-2,-1.14456885E-1,-1.5789668E-1,-9.361557E-2,2.8016532E-2,6.003935E-2,-5.767364E-2,-9.288782E-2,7.222384E-2,-1.1967871E-1,6.716492E-2],"split_indices":[9,15,16,3,13,3,4,0,15,21,3,28,28,15,9,0,0,0,0,0,0,0,0,0,0,0,0,0,0],"split_type":[0,0,0,0,0,0,0,0,0,0,0,0,0,0,0,0,0,0,0,0,0,0,0,0,0,0,0,0,0],"sum_hessian":[3.4328656E4,1.0140411E4,2.4188248E4,8.241231E3,1.899179E3,1.6247671E4,7.9405767E3,1.1537468E2,8.125857E3,1.3374445E3,5.6173444E2,1.1799822E4,4.447848E3,2.8592178E3,5.081359E3,7.98977E3,1.3608684E2,1.1451934E3,1.922511E2,4.599754E2,1.0175903E2,1.0540877E4,1.2589459E3,2.0050592E3,2.442789E3,2.3353406E3,5.238772E2,3.931022E2,4.688257E3],"tree_param":{"num_deleted":"0","num_feature":"30","num_nodes":"29","size_leaf_vector":"1"}},{"base_weights":[2.5466998E-4,1.0137902E0,-2.9478613E-1,1.0218601E0,-1.11244716E-1,-6.702944E-1,-5.058815E-2,1.0358154E0,6.563043E-1,-9.754044E-1,-2.3861201E-1,6.3383347E-1,-1.8762478E-1,1.0375183E-1,-2.8807157E-1,9.2107E-2,-1.5847357E-1,-1.4107768E-2,-1.0822018E-1,-1.09822944E-1,2.988422E-2,1.1230045E-1,-4.3178536E-2,4.48769E-2,-3.9063137E-2],"categories":[],"categories_nodes":[],"categories_segments":[],"categories_sizes":[],"default_left":[0,0,0,0,0,0,0,0,0,0,0,0,0,0,0,0,0,0,0,0,0,0,0,0,0],"id":25,"left_children":[1,3,5,7,-1,9,11,13,15,17,19,21,23,-1,-1,-1,-1,-1,-1,-1,-1,-1,-1,-1,-1],"loss_changes":[9.743068E3,1.2718506E2,2.3140347E3,3.665625E1,0E0,1.3095156E3,1.434417E3,4.9995605E1,1.6276569E2,5.189575E2,1.9034423E3,1.3304231E3,1.6463638E3,0E0,0E0,0E0,0E0,0E0,0E0,0E0,0E0,0E0,0E0,0E0,0E0],"parents":[2147483647,0,0,1,1,2,2,3,3,5,5,6,6,7,7,8,8,9,9,10,10,11,11,12,12],"right_children":[2,4,6,8,-1,10,12,14,16,18,20,22,24,-1,-1,-1,-1,-1,-1,-1,-1,-1,-1,-1,-1],"split_conditions":[-3.637189E0,1.0319313E0,3.8232008E-1,7.67661E-1,-1.11244716E-1,6.774564E-1,-5.54595E-1,1.9387895E0,-1.4326483E0,-1.4521915E0,-6.642907E-2,-1.0950622E-1,-1.0953348E0,1.0375183E-1,-2.8807157E-1,9.2107E-2,-1.5847357E-1,-1.4107768E-2,-1.0822018E-1,-1.09822944E-1,2.988422E-2,1.1230045E-1,-4.3178536E-2,4.48769E-2,-3.9063137E-2],"split_indices":[13,9,3,6,0,29,7,15,11,9,28,12,18,0,0,0,0,0,0,0,0,0,0,0,0],"split_type":[0,0,0,0,0,0,0,0,0,0,0,0,0,0,0,0,0,0,0,0,0,0,0,0,0],"sum_hessian":[3.2579771E4,7.3451143E3,2.5234656E4,7.3178594E3,2.7254627E1,9.94314E3,1.5291517E4,7.0470034E3,2.7085623E2,5.82489E3,4.11825E3,2.550344E3,1.2741173E4,7.0446753E3,2.327878E0,2.4276407E2,2.8092148E1,6.61264E2,5.163626E3,1.5838916E3,2.5343582E3,1.7479131E3,8.02431E2,3.0811238E3,9.660049E3],"tree_param":{"num_deleted":"0","num_feature":"30","num_nodes":"25","size_leaf_vector":"1"}},{"base_weights":[1.9727625E-4,9.489495E-1,-2.949147E-1,9.891942E-1,-1.330045E0,8.78939E-2,-5.7726896E-1,1.0308796E0,-9.026046E-2,-1.1076217E-1,-1.5286674E-1,2.4241546E-1,-1.0769687E0,-7.4391186E-1,4.1358164E-1,-1.0424634E-1,1.04072385E-1,1.015681E-1,-1.3238649E-1,1.343311E-1,7.679753E-3,-1.2357526E-1,8.986344E-2,-9.161641E-2,4.9001537E-3,-4.9332853E-2,1.1396549E-1],"categories":[],"categories_nodes":[],"categories_segments":[],"categories_sizes":[],"default_left":[0,0,0,0,0,0,0,0,0,0,0,0,0,0,0,0,0,0,0,0,0,0,0,0,0,0,0],"id":26,"left_children":[1,3,5,7,9,11,13,15,17,-1,-1,19,21,23,25,-1,-1,-1,-1,-1,-1,-1,-1,-1,-1,-1,-1],"loss_changes":[8.7265625E3,6.795337E2,2.5696147E3,3.2708545E2,3.9944458E0,1.8168258E3,2.259412E3,1.438916E2,3.7122153E2,0E0,0E0,1.6246367E3,3.7194373E2,1.599731E3,1.2980281E3,0E0,0E0,0E0,0E0,0E0,0E0,0E0,0E0,0E0,0E0,0E0,0E0],"parents":[2147483647,0,0,1,1,2,2,3,3,4,4,5,5,6,6,7,7,8,8,11,11,12,12,13,13,14,14],"right_children":[2,4,6,8,10,12,14,16,18,-1,-1,20,22,24,26,-1,-1,-1,-1,-1,-1,-1,-1,-1,-1,-1,-1],"split_conditions":[-2.6906626E0,1.5848378E0,-4.2572534E-1,8.981508E-1,1.3736895E0,5.451428E-1,1.27867E0,-4.8610923E-1,-3.0596282E0,-1.1076217E-1,-1.5286674E-1,-4.7385138E-1,1.7794089E0,1.5666527E-1,1.6059537E-1,-1.0424634E-1,1.04072385E-1,1.015681E-1,-1.3238649E-1,1.343311E-1,7.679753E-3,-1.2357526E-1,8.986344E-2,-9.161641E-2,4.9001537E-3,-4.9332853E-2,1.1396549E-1],"split_indices":[11,13,13,8,3,9,6,3,13,0,0,19,21,27,14,0,0,0,0,0,0,0,0,0,0,0,0],"split_type":[0,0,0,0,0,0,0,0,0,0,0,0,0,0,0,0,0,0,0,0,0,0,0,0,0,0,0],"sum_hessian":[3.1165615E4,7.393646E3,2.3771969E4,7.2659033E3,1.2774239E2,1.00912295E4,1.3680738E4,6.995791E3,2.7011227E2,6.3363033E1,6.4379364E1,8.91008E3,1.1811497E3,1.1711353E4,1.9693856E3,3.2563198E1,6.963228E3,1.4251894E2,1.2759332E2,1.1642129E3,7.745867E3,1.0936267E3,8.752287E1,9.621111E3,2.0902422E3,8.757902E2,1.0935953E3],"tree_param":{"num_deleted":"0","num_feature":"30","num_nodes":"27","size_leaf_vector":"1"}},{"base_weights":[1.3437558E-5,1.002175E0,-2.5942045E-1,1.0101855E0,-1.08099736E-1,-6.274556E-1,-3.392047E-2,1.0267175E0,6.455443E-1,-9.519006E-1,-1.9997168E-1,1.14324495E-1,-5.9196407E-1,1.0285433E-1,-2.611744E-1,9.081897E-2,-1.5262608E-1,-1.1436793E-2,-1.07295536E-1,-1.0878463E-1,2.8975073E-2,3.5865404E-2,-4.1139618E-2,8.073465E-2,-9.095069E-2],"categories":[],"categories_nodes":[],"categories_segments":[],"categories_sizes":[],"default_left":[0,0,0,0,0,0,0,0,0,0,0,0,0,0,0,0,0,0,0,0,0,0,0,0,0],"id":27,"left_children":[1,3,5,7,-1,9,11,13,15,17,19,21,23,-1,-1,-1,-1,-1,-1,-1,-1,-1,-1,-1,-1],"loss_changes":[7.750009E3,1.0338086E2,1.9651083E3,3.615039E1,0E0,1.2475198E3,1.2147917E3,4.14834E1,1.5400351E2,5.183867E2,1.6886564E3,1.4904619E3,1.3702488E3,0E0,0E0,0E0,0E0,0E0,0E0,0E0,0E0,0E0,0E0,0E0,0E0],"parents":[2147483647,0,0,1,1,2,2,3,3,5,5,6,6,7,7,8,8,9,9,10,10,11,11,12,12],"right_children":[2,4,6,8,-1,10,12,14,16,18,20,22,24,-1,-1,-1,-1,-1,-1,-1,-1,-1,-1,-1,-1],"split_conditions":[-3.637189E0,1.0319313E0,3.8232008E-1,6.5715265E-1,-1.08099736E-1,6.774564E-1,2.2511543E-1,1.9387895E0,-1.4326483E0,-1.4521915E0,-6.642907E-2,-2.3230253E-2,-2.037831E0,1.0285433E-1,-2.611744E-1,9.081897E-2,-1.5262608E-1,-1.1436793E-2,-1.07295536E-1,-1.0878463E-1,2.8975073E-2,3.5865404E-2,-4.1139618E-2,8.073465E-2,-9.095069E-2],"split_indices":[13,9,3,6,0,29,7,15,11,9,28,25,11,0,0,0,0,0,0,0,0,0,0,0,0],"split_type":[0,0,0,0,0,0,0,0,0,0,0,0,0,0,0,0,0,0,0,0,0,0,0,0,0],"sum_hessian":[2.9806338E4,6.1287725E3,2.3677566E4,6.1058086E3,2.296361E1,8.995067E3,1.4682499E4,5.8392534E3,2.6655515E2,5.113146E3,3.8819214E3,1.1601374E4,3.0811243E3,5.837042E3,2.2116978E0,2.3831638E2,2.8238762E1,6.4595703E2,4.467189E3,1.3795514E3,2.50237E3,7.920587E3,3.6807876E3,5.695881E2,2.5115361E3],"tree_param":{"num_deleted":"0","num_feature":"30","num_nodes":"25","size_leaf_vector":"1"}},{"base_weights":[-2.752886E-4,9.2871654E-1,-2.5954E-1,9.715905E-1,-1.2970983E0,9.33109E-2,-5.311647E-1,1.0151795E0,-1.2022037E-1,-1.0974027E-1,-1.4583607E-1,2.302122E-1,-1.046726E0,-6.961278E-1,3.7524745E-1,-1.4761707E-1,1.02365725E-1,1.00306764E-1,-1.3119495E-1,1.2226248E-1,8.014013E-3,-1.2183552E-1,8.7725155E-2,-9.1566175E-2,2.3453221E-4,1.6668211E-1,-5.7484433E-3],"categories":[],"categories_nodes":[],"categories_segments":[],"categories_sizes":[],"default_left":[0,0,0,0,0,0,0,0,0,0,0,0,0,0,0,0,0,0,0,0,0,0,0,0,0,0,0],"id":28,"left_children":[1,3,5,7,9,11,13,15,17,-1,-1,19,21,23,25,-1,-1,-1,-1,-1,-1,-1,-1,-1,-1,-1,-1],"loss_changes":[6.8924595E3,5.971079E2,2.1443276E3,2.916836E2,2.213272E0,1.519175E3,1.8904883E3,1.25941895E2,3.1736246E2,0E0,0E0,1.2940814E3,3.4566943E2,1.6400303E3,1.0883481E3,0E0,0E0,0E0,0E0,0E0,0E0,0E0,0E0,0E0,0E0,0E0,0E0],"parents":[2147483647,0,0,1,1,2,2,3,3,4,4,5,5,6,6,7,7,8,8,11,11,12,12,13,13,14,14],"right_children":[2,4,6,8,10,12,14,16,18,-1,-1,20,22,24,26,-1,-1,-1,-1,-1,-1,-1,-1,-1,-1,-1,-1],"split_conditions":[-2.6906626E0,1.5848378E0,-4.2572534E-1,8.981508E-1,1.3736895E0,5.451428E-1,1.27867E0,-4.275706E-1,-3.0596282E0,-1.0974027E-1,-1.4583607E-1,-4.7385138E-1,1.7794089E0,1.8897588E0,1.3532969E0,-1.4761707E-1,1.02365725E-1,1.00306764E-1,-1.3119495E-1,1.2226248E-1,8.014013E-3,-1.2183552E-1,8.7725155E-2,-9.1566175E-2,2.3453221E-4,1.6668211E-1,-5.7484433E-3],"split_indices":[11,13,13,8,3,9,6,10,13,0,0,19,21,3,6,0,0,0,0,0,0,0,0,0,0,0,0],"split_type":[0,0,0,0,0,0,0,0,0,0,0,0,0,0,0,0,0,0,0,0,0,0,0,0,0,0,0],"sum_hessian":[2.8614658E4,6.242845E3,2.2371814E4,6.12542E3,1.17425255E2,9.73123E3,1.2640584E4,5.8903276E3,2.3509258E2,5.5948177E1,6.1477077E1,8.688651E3,1.0425784E3,1.0694469E4,1.946115E3,1.9388971E1,5.8709385E3,1.2110292E2,1.13989655E2,1.1403667E3,7.548285E3,9.5752844E2,8.504996E1,8.1367363E3,2.5577324E3,4.8768152E2,1.4584335E3],"tree_param":{"num_deleted":"0","num_feature":"30","num_nodes":"27","size_leaf_vector":"1"}},{"base_weights":[-5.444877E-4,9.9159616E-1,-2.2814576E-1,9.995494E-1,-1.0537952E-1,-7.492638E-1,-8.9302234E-2,1.0189162E0,6.284484E-1,-1.0825324E0,-1.6882233E-1,2.5673714E-1,-3.671377E-1,1.0210418E-1,-2.5094894E-1,8.948722E-2,-1.4838277E-1,-1.2962009E-1,-1.06720686E-1,4.1560553E-2,-1.0863651E-1,-1.1077638E-2,7.21337E-2,-9.733495E-2,-8.139613E-3],"categories":[],"categories_nodes":[],"categories_segments":[],"categories_sizes":[],"default_left":[0,0,0,0,0,0,0,0,0,0,0,0,0,0,0,0,0,0,0,0,0,0,0,0,0],"id":29,"left_children":[1,3,5,7,-1,9,11,13,15,17,19,21,23,-1,-1,-1,-1,-1,-1,-1,-1,-1,-1,-1,-1],"loss_changes":[6.1939336E3,8.431494E1,1.6142384E3,3.6006836E1,0E0,9.077864E2,1.6939738E3,3.889502E1,1.4512138E2,8.379883E0,9.191267E2,1.3398938E3,1.6927513E3,0E0,0E0,0E0,0E0,0E0,0E0,0E0,0E0,0E0,0E0,0E0,0E0],"parents":[2147483647,0,0,1,1,2,2,3,3,5,5,6,6,7,7,8,8,9,9,10,10,11,11,12,12],"right_children":[2,4,6,8,-1,10,12,14,16,18,20,22,24,-1,-1,-1,-1,-1,-1,-1,-1,-1,-1,-1,-1],"split_conditions":[-3.637189E0,1.0319313E0,-4.7373396E-1,5.3320074E-1,-1.0537952E-1,4.2152268E-1,-2.166728E-1,1.7482222E0,-1.4326483E0,-1.7919981E0,-5.94701E-1,4.2806628E-1,-1.600739E-1,1.0210418E-1,-2.5094894E-1,8.948722E-2,-1.4838277E-1,-1.2962009E-1,-1.06720686E-1,4.1560553E-2,-1.0863651E-1,-1.1077638E-2,7.21337E-2,-9.733495E-2,-8.139613E-3],"split_indices":[13,9,3,6,0,18,11,15,11,13,4,21,17,0,0,0,0,0,0,0,0,0,0,0,0],"split_type":[0,0,0,0,0,0,0,0,0,0,0,0,0,0,0,0,0,0,0,0,0,0,0,0,0],"sum_hessian":[2.7427545E4,5.1172954E3,2.2310248E4,5.0979844E3,1.9311438E1,4.6927324E3,1.7617516E4,4.843469E3,2.5451466E2,2.9805454E3,1.7121871E3,7.8457915E3,9.771725E3,4.8412637E3,2.2058287E0,2.2651982E2,2.7994852E1,1.9388106E2,2.7866646E3,1.0462966E3,6.6589044E2,4.3810225E3,3.464769E3,3.1296482E3,6.642076E3],"tree_param":{"num_deleted":"0","num_feature":"30","num_nodes":"25","size_leaf_vector":"1"}},{"base_weights":[-7.2513794E-4,9.866433E-1,-2.12139E-1,9.946079E-1,-1.04028724E-1,-7.861054E-2,-7.4269646E-1,1.0146749E0,6.157516E-1,-2.9735038E-1,3.1031632E-1,-9.8506624E-1,3.8987473E-1,1.0169057E-1,-2.2674303E-1,8.7898426E-2,-1.432666E-1,8.319822E-2,-4.494854E-2,-3.4450706E-2,5.7630237E-2,1.032383E-1,-1.1184311E-1,8.855865E-2,-1.1812766E-1],"categories":[],"categories_nodes":[],"categories_segments":[],"categories_sizes":[],"default_left":[0,0,0,0,0,0,0,0,0,0,0,0,0,0,0,0,0,0,0,0,0,0,0,0,0],"id":30,"left_children":[1,3,5,7,-1,9,11,13,15,17,19,21,23,-1,-1,-1,-1,-1,-1,-1,-1,-1,-1,-1,-1],"loss_changes":[5.507711E3,7.615527E1,1.5395264E3,3.461621E1,0E0,1.4772584E3,1.1998254E3,3.4526367E1,1.2836316E2,1.9098176E3,1.0889102E3,9.6964355E2,6.015012E2,0E0,0E0,0E0,0E0,0E0,0E0,0E0,0E0,0E0,0E0,0E0,0E0],"parents":[2147483647,0,0,1,1,2,2,3,3,5,5,6,6,7,7,8,8,9,9,10,10,11,11,12,12],"right_children":[2,4,6,8,-1,10,12,14,16,18,20,22,24,-1,-1,-1,-1,-1,-1,-1,-1,-1,-1,-1,-1],"split_conditions":[-3.637189E0,1.0319313E0,2.788123E-1,5.3320074E-1,-1.04028724E-1,5.545181E-1,3.124409E0,1.7482222E0,-1.4326483E0,-1.5004588E0,1.6873795E-1,-1.6117035E0,-4.9282464E-1,1.0169057E-1,-2.2674303E-1,8.7898426E-2,-1.432666E-1,8.319822E-2,-4.494854E-2,-3.4450706E-2,5.7630237E-2,1.032383E-1,-1.1184311E-1,8.855865E-2,-1.1812766E-1],"split_indices":[13,9,7,6,0,16,3,15,11,12,4,16,6,0,0,0,0,0,0,0,0,0,0,0,0],"split_type":[0,0,0,0,0,0,0,0,0,0,0,0,0,0,0,0,0,0,0,0,0,0,0,0,0],"sum_hessian":[2.638308E4,4.6521987E3,2.173088E4,4.634497E3,1.7701458E1,1.7362348E4,4.3685337E3,4.399775E3,2.3472221E2,1.1112629E4,6.249718E3,3.5985713E3,7.699626E2,4.397476E3,2.2986505E0,2.0849977E2,2.6222443E1,1.3187537E3,9.793876E3,1.8052152E3,4.444503E3,2.2271745E2,3.3758538E3,5.856282E2,1.8433438E2],"tree_param":{"num_deleted":"0","num_feature":"30","num_nodes":"25","size_leaf_vector":"1"}},{"base_weights":[-7.2757236E-4,8.969714E-1,-2.160083E-1,9.4513077E-1,-1.2655494E0,9.7246416E-2,-4.6935174E-1,9.9392164E-1,-1.6608348E-1,-1.08562425E-1,-1.3986275E-1,-5.5191E-1,3.095337E-1,-6.364824E-1,3.5529143E-1,1.00517474E-1,-1.22824065E-1,9.91083E-2,-1.2985195E-1,-9.2629634E-2,1.2460443E-1,-3.9312802E-2,5.4228522E-2,-8.387469E-2,1.6792148E-2,6.7926854E-2,-1.1635685E-1],"categories":[],"categories_nodes":[],"categories_segments":[],"categories_sizes":[],"default_left":[0,0,0,0,0,0,0,0,0,0,0,0,0,0,0,0,0,0,0,0,0,0,0,0,0,0,0],"id":31,"left_children":[1,3,5,7,9,11,13,15,17,-1,-1,19,21,23,25,-1,-1,-1,-1,-1,-1,-1,-1,-1,-1,-1,-1],"loss_changes":[4.9029595E3,5.122676E2,1.6239973E3,2.604585E2,1.0515747E0,1.2611647E3,1.5594812E3,1.16242676E2,2.6702512E2,0E0,0E0,1.5192688E3,1.1280369E3,1.5307297E3,9.3925226E2,0E0,0E0,0E0,0E0,0E0,0E0,0E0,0E0,0E0,0E0,0E0,0E0],"parents":[2147483647,0,0,1,1,2,2,3,3,4,4,5,5,6,6,7,7,8,8,11,11,12,12,13,13,14,14],"right_children":[2,4,6,8,10,12,14,16,18,-1,-1,20,22,24,26,-1,-1,-1,-1,-1,-1,-1,-1,-1,-1,-1,-1],"split_conditions":[-2.6906626E0,1.5848378E0,-4.2572534E-1,8.981508E-1,1.3736895E0,-2.54477E-2,1.27867E0,3.000172E0,-3.0596282E0,-1.08562425E-1,-1.3986275E-1,8.281944E-1,3.1042192E-2,1.5666527E-1,2.9480442E-2,1.00517474E-1,-1.22824065E-1,9.91083E-2,-1.2985195E-1,-9.2629634E-2,1.2460443E-1,-3.9312802E-2,5.4228522E-2,-8.387469E-2,1.6792148E-2,6.7926854E-2,-1.1635685E-1],"split_indices":[11,13,13,8,3,27,6,16,13,0,0,20,17,27,11,0,0,0,0,0,0,0,0,0,0,0,0],"split_type":[0,0,0,0,0,0,0,0,0,0,0,0,0,0,0,0,0,0,0,0,0,0,0,0,0,0,0],"sum_hessian":[2.5368113E4,4.906275E3,2.0461838E4,4.799943E3,1.0633183E2,9.149391E3,1.1312446E4,4.598154E3,2.01789E2,4.910216E1,5.722967E1,2.2543083E3,6.8950825E3,9.406298E3,1.906149E3,4.575531E3,2.2623095E1,9.9866455E1,1.0192255E2,1.8661968E3,3.881116E2,1.7154777E3,5.179605E3,7.5163066E3,1.8899907E3,1.5714971E3,3.3465198E2],"tree_param":{"num_deleted":"0","num_feature":"30","num_nodes":"27","size_leaf_vector":"1"}},{"base_weights":[-9.647117E-4,9.762443E-1,-1.8605112E-1,9.845722E-1,-1.0249797E-1,-6.241516E-2,-7.1474546E-1,9.9125314E-1,-4.242189E-1,-5.37885E-1,1.1023083E-1,-9.734976E-1,3.8182375E-1,1.0073047E-1,6.7659855E-2,4.4174228E-2,-5.851865E-1,-9.318405E-2,2.6438868E-2,9.177069E-2,-9.1169885E-4,1.01611726E-1,-1.10652484E-1,9.641569E-2,-8.228386E-2],"categories":[],"categories_nodes":[],"categories_segments":[],"categories_sizes":[],"default_left":[0,0,0,0,0,0,0,0,0,0,0,0,0,0,0,0,0,0,0,0,0,0,0,0,0],"id":32,"left_children":[1,3,5,7,-1,9,11,13,15,17,19,21,23,-1,-1,-1,-1,-1,-1,-1,-1,-1,-1,-1,-1],"loss_changes":[4.4090493E3,6.57041E1,1.3396421E3,3.6810303E1,0E0,1.3636973E3,1.102521E3,1.8755371E1,9.164785E1,1.3988984E3,1.1745371E3,8.330073E2,5.215314E2,0E0,0E0,0E0,0E0,0E0,0E0,0E0,0E0,0E0,0E0,0E0,0E0],"parents":[2147483647,0,0,1,1,2,2,3,3,5,5,6,6,7,7,8,8,9,9,10,10,11,11,12,12],"right_children":[2,4,6,8,-1,10,12,14,16,18,20,22,24,-1,-1,-1,-1,-1,-1,-1,-1,-1,-1,-1,-1],"split_conditions":[-3.637189E0,1.0319313E0,2.788123E-1,1.8624749E0,-1.0249797E-1,-6.8184245E-1,3.124409E0,5.3320074E-1,4.402947E0,1.12649E0,-1.4418013E0,-1.6117035E0,-6.835743E-1,1.0073047E-1,6.7659855E-2,4.4174228E-2,-5.851865E-1,-9.318405E-2,2.6438868E-2,9.177069E-2,-9.1169885E-4,1.01611726E-1,-1.10652484E-1,9.641569E-2,-8.228386E-2],"split_indices":[13,9,7,0,0,5,3,6,3,16,12,16,6,0,0,0,0,0,0,0,0,0,0,0,0],"split_type":[0,0,0,0,0,0,0,0,0,0,0,0,0,0,0,0,0,0,0,0,0,0,0,0,0],"sum_hessian":[2.4375146E4,3.8808696E3,2.0494275E4,3.8652927E3,1.557698E1,1.6610908E4,3.8833674E3,3.8473438E3,1.7949015E1,4.424273E3,1.2186636E4,3.1420623E3,7.4130505E2,3.6585103E3,1.8883334E2,1.6271559E1,1.6774555E0,2.9671143E3,1.4571589E3,1.568421E3,1.0618215E4,1.9649875E2,2.9455635E3,4.9986856E2,2.4143654E2],"tree_param":{"num_deleted":"0","num_feature":"30","num_nodes":"25","size_leaf_vector":"1"}},{"base_weights":[-1.1277719E-3,9.695686E-1,-1.7229593E-1,9.7789025E-1,-1.012338E-1,5.454914E-1,-2.645719E-1,1.002147E0,5.3256714E-1,7.1197224E-1,-1.5312527E0,-3.7004597E-2,-6.3064474E-1,1.0049498E-1,-2.049355E-1,8.246185E-2,-1.3721934E-1,8.854154E-2,-1.2009461E-1,-3.8241485E-1,-1.316498E-1,-1.1651813E-1,1.07857045E-2,-8.666264E-2,3.3743776E-2],"categories":[],"categories_nodes":[],"categories_segments":[],"categories_sizes":[],"default_left":[0,0,0,0,0,0,0,0,0,0,0,0,0,0,0,0,0,0,0,0,0,0,0,0,0],"id":33,"left_children":[1,3,5,7,-1,9,11,13,15,17,19,21,23,-1,-1,-1,-1,-1,-1,-1,-1,-1,-1,-1,-1],"loss_changes":[3.9186143E3,5.929785E1,1.3280867E3,3.7501465E1,0E0,7.9081165E2,1.4799895E3,3.0608643E1,1.0350001E2,7.028911E2,7.8594574E1,1.7907521E3,1.5561199E3,0E0,0E0,0E0,0E0,0E0,0E0,0E0,0E0,0E0,0E0,0E0,0E0],"parents":[2147483647,0,0,1,1,2,2,3,3,5,5,6,6,7,7,8,8,9,9,10,10,11,11,12,12],"right_children":[2,4,6,8,-1,10,12,14,16,18,20,22,24,-1,-1,-1,-1,-1,-1,-1,-1,-1,-1,-1,-1],"split_conditions":[-3.637189E0,1.0319313E0,-1.4749148E0,6.5715265E-1,-1.012338E-1,2.2373845E-1,3.849399E-2,1.9387895E0,-1.4326483E0,1.5270767E-1,-1.8985626E0,-1.0647767E0,1.6210725E0,1.0049498E-1,-2.049355E-1,8.246185E-2,-1.3721934E-1,8.854154E-2,-1.2009461E-1,-3.8241485E-1,-1.316498E-1,-1.1651813E-1,1.07857045E-2,-8.666264E-2,3.3743776E-2],"split_indices":[13,9,18,6,0,22,13,15,11,14,13,10,28,0,0,0,0,0,0,0,0,0,0,0,0],"split_type":[0,0,0,0,0,0,0,0,0,0,0,0,0,0,0,0,0,0,0,0,0,0,0,0,0],"sum_hessian":[2.3582465E4,3.5343674E3,2.0048098E4,3.5200938E3,1.4273631E1,2.2831604E3,1.7764938E4,3.337073E3,1.8302069E2,2.1143242E3,1.6883626E2,1.0955567E4,6.8093706E3,3.334681E3,2.392182E0,1.59181E2,2.3839682E1,1.939049E3,1.7527528E2,1.3019754E1,1.5581651E2,1.245855E3,9.709712E3,5.4749023E3,1.3344679E3],"tree_param":{"num_deleted":"0","num_feature":"30","num_nodes":"25","size_leaf_vector":"1"}},{"base_weights":[-1.3078923E-3,8.640436E-1,-1.79444E-1,9.151264E-1,-1.2324591E0,-2.2208735E-1,1.4297985E0,9.868256E-1,9.8521516E-2,-1.06281474E-1,-1.3427818E-1,1.0190845E-2,-5.301619E-1,-1.14957824E-1,1.9479543E0,-1.446483E-1,9.9704765E-2,7.863916E-2,-1.2371502E-1,1.6939225E-2,-7.6778024E-2,-8.778315E-2,-1.4239631E-3,1.365879E-1,3.2860237E-1],"categories":[],"categories_nodes":[],"categories_segments":[],"categories_sizes":[],"default_left":[0,0,0,0,0,0,0,0,0,0,0,0,0,0,0,0,0,0,0,0,0,0,0,0,0],"id":34,"left_children":[1,3,5,7,9,11,13,15,17,-1,-1,19,21,-1,23,-1,-1,-1,-1,-1,-1,-1,-1,-1,-1],"loss_changes":[3.5151765E3,4.1803296E2,1.2980366E3,2.2244067E2,3.1384277E-1,1.3183654E3,6.548797E2,8.83479E1,2.8385583E2,0E0,0E0,1.3011952E3,1.4205251E3,0E0,3.1250635E2,0E0,0E0,0E0,0E0,0E0,0E0,0E0,0E0,0E0,0E0],"parents":[2147483647,0,0,1,1,2,2,3,3,4,4,5,5,6,6,7,7,8,8,11,11,12,12,14,14],"right_children":[2,4,6,8,10,12,14,16,18,-1,-1,20,22,-1,24,-1,-1,-1,-1,-1,-1,-1,-1,-1,-1],"split_conditions":[-2.6906626E0,1.5848378E0,1.2032214E0,5.873353E-1,1.3736895E0,-1.02480054E-1,1.2128587E0,-4.275706E-1,-4.5541593E-1,-1.06281474E-1,-1.3427818E-1,2.2511543E-1,4.6472216E-1,-1.14957824E-1,1.0388099E0,-1.446483E-1,9.9704765E-2,7.863916E-2,-1.2371502E-1,1.6939225E-2,-7.6778024E-2,-8.778315E-2,-1.4239631E-3,1.365879E-1,3.2860237E-1],"split_indices":[11,13,25,8,3,25,18,10,13,0,0,7,10,0,0,0,0,0,0,0,0,0,0,0,0],"split_type":[0,0,0,0,0,0,0,0,0,0,0,0,0,0,0,0,0,0,0,0,0,0,0,0,0],"sum_hessian":[2.2801555E4,3.891847E3,1.8909707E4,3.7998252E3,9.202192E1,1.8422395E4,4.8731357E2,3.4929316E3,3.068936E2,4.045207E1,5.156985E1,1.0503821E4,7.9185723E3,8.131406E1,4.059995E2,1.4024182E1,3.4789075E3,2.0284155E2,1.04052025E2,8.720143E3,1.7836787E3,4.730251E3,3.1883215E3,2.8433243E2,1.2166706E2],"tree_param":{"num_deleted":"0","num_feature":"30","num_nodes":"25","size_leaf_vector":"1"}},{"base_weights":[-1.3446304E-3,9.591794E-1,-1.5000471E-1,9.952778E-1,4.2067122E-1,-7.1696955E-1,-3.8105566E-2,9.98542E-1,-1.9841532E-1,7.835199E-1,-1.2591763E-1,3.13128E-1,-9.351112E-1,1.8012422E-1,-3.7091663E-1,9.998094E-2,-7.366077E-2,-4.7538456E-1,8.572337E-2,-1.14578806E-1,1.3687807E-1,-1.0623326E-1,2.2864409E-2,3.679245E-2,-7.288126E-2,-6.7777134E-2,4.0544573E-2],"categories":[],"categories_nodes":[],"categories_segments":[],"categories_sizes":[],"default_left":[0,0,0,0,0,0,0,0,0,0,0,0,0,0,0,0,0,0,0,0,0,0,0,0,0,0,0],"id":35,"left_children":[1,3,5,7,9,11,13,15,-1,17,-1,19,21,23,25,-1,-1,-1,-1,-1,-1,-1,-1,-1,-1,-1,-1],"loss_changes":[3.1677153E3,5.737964E1,1.2187681E3,2.907373E1,1.1589618E2,7.1183606E2,1.165431E3,6.857422E0,0E0,6.760859E1,0E0,8.549908E2,3.871692E2,1.6546046E3,1.5141836E3,0E0,0E0,0E0,0E0,0E0,0E0,0E0,0E0,0E0,0E0,0E0,0E0],"parents":[2147483647,0,0,1,1,2,2,3,3,4,4,5,5,6,6,7,7,9,9,11,11,12,12,13,13,14,14],"right_children":[2,4,6,8,10,12,14,16,-1,18,-1,20,22,24,26,-1,-1,-1,-1,-1,-1,-1,-1,-1,-1,-1,-1],"split_conditions":[-3.637189E0,5.3320074E-1,-5.9400344E-1,1.7482222E0,-1.4326483E0,-1.4521915E0,3.849399E-2,1.0319313E0,-1.9841532E-1,1.049156E0,-1.2591763E-1,8.796366E-1,1.159407E0,8.1545085E-2,8.9835143E-1,9.998094E-2,-7.366077E-2,-4.7538456E-1,8.572337E-2,-1.14578806E-1,1.3687807E-1,-1.0623326E-1,2.2864409E-2,3.679245E-2,-7.288126E-2,-6.7777134E-2,4.0544573E-2],"split_indices":[13,6,3,15,11,9,13,9,0,10,0,14,16,26,9,0,0,0,0,0,0,0,0,0,0,0,0],"split_type":[0,0,0,0,0,0,0,0,0,0,0,0,0,0,0,0,0,0,0,0,0,0,0,0,0,0,0],"sum_hessian":[2.218218E4,2.9722695E3,1.920991E4,2.784748E3,1.8752147E2,3.165535E3,1.6044375E4,2.7823647E3,2.3834264E0,1.546504E2,3.287106E1,5.531313E2,2.6124036E3,9.690566E3,6.353808E3,2.7807573E3,1.6072624E0,1.1975844E0,1.5345284E2,2.3217676E2,3.2095456E2,2.3550386E3,2.5736496E2,8.0316914E3,1.658875E3,4.553987E3,1.7998215E3],"tree_param":{"num_deleted":"0","num_feature":"30","num_nodes":"27","size_leaf_vector":"1"}},{"base_weights":[-1.6652093E-3,8.331376E-1,-1.6215046E-1,9.718527E-1,-1.0983006E-1,-8.78565E-1,-3.9333396E-2,1.0507339E0,-1.0017369E0,2.7118415E-1,-1.1233457E0,-1.117784E0,4.011258E-2,2.038286E-1,9.411774E-2,-1.1338689E-1,8.7654576E-2,1.0325217E-1,-1.1655897E-1,-1.08736865E-1,-1.381319E-1,-1.0750424E-1,-1.331002E-1,9.801825E-2,-6.0859635E-3],"categories":[],"categories_nodes":[],"categories_segments":[],"categories_sizes":[],"default_left":[0,0,0,0,0,0,0,0,0,0,0,0,0,0,0,0,0,0,0,0,0,0,0,0,0],"id":36,"left_children":[1,3,5,7,-1,9,11,13,15,17,19,21,23,-1,-1,-1,-1,-1,-1,-1,-1,-1,-1,-1,-1],"loss_changes":[2.8811396E3,9.3011206E2,1.587062E3,5.047981E2,0E0,7.432035E2,1.3194086E3,3.3476978E2,3.1984543E1,5.089172E2,1.869873E1,8.198242E0,1.3615483E3,0E0,0E0,0E0,0E0,0E0,0E0,0E0,0E0,0E0,0E0,0E0,0E0],"parents":[2147483647,0,0,1,1,2,2,3,3,5,5,6,6,7,7,8,8,9,9,10,10,11,11,12,12],"right_children":[2,4,6,8,-1,10,12,14,16,18,20,22,24,-1,-1,-1,-1,-1,-1,-1,-1,-1,-1,-1,-1],"split_conditions":[-1.5834388E0,2.8558737E-1,-7.512129E-1,8.471364E-1,-1.0983006E-1,-1.4921248E0,-7.6001626E-1,-1.036987E0,2.723479E0,-6.5783876E-1,1.7589736E0,1.7970024E0,-5.6149703E-1,2.038286E-1,9.411774E-2,-1.1338689E-1,8.7654576E-2,1.0325217E-1,-1.1655897E-1,-1.08736865E-1,-1.381319E-1,-1.0750424E-1,-1.331002E-1,9.801825E-2,-6.0859635E-3],"split_indices":[15,11,4,17,0,9,17,10,10,15,6,3,4,0,0,0,0,0,0,0,0,0,0,0,0],"split_type":[0,0,0,0,0,0,0,0,0,0,0,0,0,0,0,0,0,0,0,0,0,0,0,0,0],"sum_hessian":[2.1503283E4,3.4666216E3,1.8036662E4,3.2347966E3,2.3182509E2,2.6386685E3,1.5397993E4,3.1109255E3,1.2387104E2,4.631445E2,2.175524E3,1.0555953E3,1.4342397E4,3.0889697E2,2.8020286E3,1.1610005E2,7.7709923E0,3.0291373E2,1.6023076E2,1.9138342E3,2.6168964E2,8.843584E2,1.7123692E2,1.3902457E3,1.2952151E4],"tree_param":{"num_deleted":"0","num_feature":"30","num_nodes":"25","size_leaf_vector":"1"}},{"base_weights":[-2.0461394E-3,9.491494E-1,-1.3213253E-1,9.873833E-1,3.8302702E-1,-7.0099E-1,-2.9558001E-2,9.909499E-1,-1.7283313E-1,7.3952746E-1,-1.22276895E-1,2.5561416E-1,-9.201292E-1,2.5019166E-1,-2.742027E-1,9.924374E-2,-7.158788E-2,-4.0289766E-1,8.224131E-2,-1.1313911E-1,1.1706056E-1,-1.0551381E-1,1.9047262E-2,-2.2071912E-3,7.541112E-2,-8.808761E-2,-3.499486E-3],"categories":[],"categories_nodes":[],"categories_segments":[],"categories_sizes":[],"default_left":[0,0,0,0,0,0,0,0,0,0,0,0,0,0,0,0,0,0,0,0,0,0,0,0,0,0,0],"id":37,"left_children":[1,3,5,7,9,11,13,15,-1,17,-1,19,21,23,25,-1,-1,-1,-1,-1,-1,-1,-1,-1,-1,-1,-1],"loss_changes":[2.5971118E3,5.4278076E1,1.0773434E3,2.4617188E1,9.329032E1,5.915277E2,1.0707377E3,6.708008E0,0E0,5.5756477E1,0E0,6.695125E2,3.4433838E2,1.0014211E3,1.2111714E3,0E0,0E0,0E0,0E0,0E0,0E0,0E0,0E0,0E0,0E0,0E0,0E0],"parents":[2147483647,0,0,1,1,2,2,3,3,4,4,5,5,6,6,7,7,9,9,11,11,12,12,13,13,14,14],"right_children":[2,4,6,8,10,12,14,16,-1,18,-1,20,22,24,26,-1,-1,-1,-1,-1,-1,-1,-1,-1,-1,-1,-1],"split_conditions":[-3.637189E0,6.5715265E-1,-5.9400344E-1,1.9387895E0,-1.4326483E0,-1.4521915E0,-2.166728E-1,1.0319313E0,-1.7283313E-1,1.049156E0,-1.22276895E-1,8.796366E-1,1.159407E0,8.5867673E-1,-1.600739E-1,9.924374E-2,-7.158788E-2,-4.0289766E-1,8.224131E-2,-1.1313911E-1,1.1706056E-1,-1.0551381E-1,1.9047262E-2,-2.2071912E-3,7.541112E-2,-8.808761E-2,-3.499486E-3],"split_indices":[13,6,3,15,11,9,11,9,0,10,0,14,16,28,17,0,0,0,0,0,0,0,0,0,0,0,0],"split_type":[0,0,0,0,0,0,0,0,0,0,0,0,0,0,0,0,0,0,0,0,0,0,0,0,0,0,0],"sum_hessian":[2.0986852E4,2.5241191E3,1.846273E4,2.3637368E3,1.6038232E2,2.8196565E3,1.5643075E4,2.361271E3,2.4660094E0,1.316863E2,2.8696024E1,5.255064E2,2.2941501E3,7.297924E3,8.345151E3,2.359633E3,1.637771E0,1.436457E0,1.3024985E2,2.0878285E2,3.1672357E2,2.0455369E3,2.4861322E2,4.738635E3,2.559289E3,2.3591777E3,5.9859736E3],"tree_param":{"num_deleted":"0","num_feature":"30","num_nodes":"27","size_leaf_vector":"1"}},{"base_weights":[-2.2495198E-3,8.2213324E-1,-1.4130181E-1,8.8053143E-1,-1.2082829E-1,4.57457E-2,-4.756113E-1,9.644507E-1,5.4905713E-2,-3.6499325E-2,1.4357535E0,1.0662631E0,-6.1318445E-1,9.7981334E-2,-1.3032041E-1,7.229347E-2,-1.22157335E-1,-3.940452E-2,2.567014E-2,3.5268998E-1,1.42860385E-2,-1.2709533E-1,1.5199848E-1,-8.766217E-2,3.264288E-2],"categories":[],"categories_nodes":[],"categories_segments":[],"categories_sizes":[],"default_left":[0,0,0,0,0,0,0,0,0,0,0,0,0,0,0,0,0,0,0,0,0,0,0,0,0],"id":38,"left_children":[1,3,5,7,-1,9,11,13,15,17,19,21,23,-1,-1,-1,-1,-1,-1,-1,-1,-1,-1,-1,-1],"loss_changes":[2.3353455E3,3.4970972E2,1.0900828E3,1.980166E2,0E0,1.2780381E3,1.3273015E3,9.1676025E1,2.2670282E2,1.1066505E3,1.6879558E3,5.4560516E2,1.4217305E3,0E0,0E0,0E0,0E0,0E0,0E0,0E0,0E0,0E0,0E0,0E0,0E0],"parents":[2147483647,0,0,1,1,2,2,3,3,5,5,6,6,7,7,8,8,9,9,10,10,11,11,12,12],"right_children":[2,4,6,8,-1,10,12,14,16,18,20,22,24,-1,-1,-1,-1,-1,-1,-1,-1,-1,-1,-1,-1],"split_conditions":[-2.6906626E0,1.5848378E0,3.849399E-2,5.873353E-1,-1.2082829E-1,-1.399054E-2,-1.564953E0,3.000172E0,-4.5541593E-1,5.545181E-1,-1.285572E0,9.4487704E-2,1.3148568E0,9.7981334E-2,-1.3032041E-1,7.229347E-2,-1.22157335E-1,-3.940452E-2,2.567014E-2,3.5268998E-1,1.42860385E-2,-1.2709533E-1,1.5199848E-1,-8.766217E-2,3.264288E-2],"split_indices":[11,13,13,8,0,13,28,16,13,16,28,27,6,0,0,0,0,0,0,0,0,0,0,0,0],"split_type":[0,0,0,0,0,0,0,0,0,0,0,0,0,0,0,0,0,0,0,0,0,0,0,0,0],"sum_hessian":[2.0370475E4,2.9393552E3,1.743112E4,2.8577285E3,8.162675E1,1.1177901E4,6.253218E3,2.5939072E3,2.6382126E2,1.0554385E4,6.2351605E2,5.116838E2,5.7415337E3,2.5770168E3,1.6890535E1,1.7347104E2,9.0350204E1,4.7552344E3,5.799151E3,2.3755798E2,3.8595807E2,8.289141E1,4.287924E2,4.4843374E3,1.2571965E3],"tree_param":{"num_deleted":"0","num_feature":"30","num_nodes":"25","size_leaf_vector":"1"}},{"base_weights":[-2.6786076E-3,7.9558825E-1,-1.3739792E-1,9.3615216E-1,-1.0864909E-1,-8.69376E-1,-2.3029814E-2,1.0183758E0,-1.0154417E0,2.030173E-1,-1.1154351E0,-1.20149426E-1,7.473937E-1,1.0705175E-1,-6.397298E-2,-1.1306889E-1,8.339481E-2,8.9997105E-2,-1.1554851E-1,-1.07847385E-1,-1.3595544E-1,8.7076366E-2,-2.391081E-2,9.451073E-2,-1.253781E-1],"categories":[],"categories_nodes":[],"categories_segments":[],"categories_sizes":[],"default_left":[0,0,0,0,0,0,0,0,0,0,0,0,0,0,0,0,0,0,0,0,0,0,0,0,0],"id":39,"left_children":[1,3,5,7,-1,9,11,13,15,17,19,21,23,-1,-1,-1,-1,-1,-1,-1,-1,-1,-1,-1,-1],"loss_changes":[2.1292754E3,7.573628E2,1.4181534E3,4.2800708E2,0E0,6.0427466E2,1.0964249E3,2.214729E2,2.397725E1,4.063399E2,1.5335449E1,1.5341389E3,6.502391E2,0E0,0E0,0E0,0E0,0E0,0E0,0E0,0E0,0E0,0E0,0E0,0E0],"parents":[2147483647,0,0,1,1,2,2,3,3,5,5,6,6,7,7,8,8,9,9,10,10,11,11,12,12],"right_children":[2,4,6,8,-1,10,12,14,16,18,20,22,24,-1,-1,-1,-1,-1,-1,-1,-1,-1,-1,-1,-1],"split_conditions":[-1.5834388E0,2.8558737E-1,-7.512129E-1,8.471364E-1,-1.0864909E-1,-1.4921248E0,1.4721309E0,8.58326E-1,2.723479E0,-6.5783876E-1,1.7589736E0,-5.6149703E-1,7.6634444E-2,1.0705175E-1,-6.397298E-2,-1.1306889E-1,8.339481E-2,8.9997105E-2,-1.1554851E-1,-1.07847385E-1,-1.3595544E-1,8.7076366E-2,-2.391081E-2,9.451073E-2,-1.253781E-1],"split_indices":[15,11,4,17,0,9,28,6,10,15,6,4,25,0,0,0,0,0,0,0,0,0,0,0,0],"split_type":[0,0,0,0,0,0,0,0,0,0,0,0,0,0,0,0,0,0,0,0,0,0,0,0,0],"sum_hessian":[1.9797469E4,2.8579636E3,1.6939506E4,2.6598167E3,1.9814697E2,2.2881702E3,1.4651336E4,2.552744E3,1.0707269E2,4.270675E2,1.8611027E3,1.3011899E4,1.6394364E3,2.4752598E3,7.748417E1,1.0115753E2,5.915158E0,2.8248267E2,1.4458482E2,1.6210782E3,2.4002441E2,1.3939686E3,1.1617931E4,1.4925063E3,1.4693007E2],"tree_param":{"num_deleted":"0","num_feature":"30","num_nodes":"25","size_leaf_vector":"1"}},{"base_weights":[-2.605085E-3,9.318493E-1,-1.0976464E-1,9.786019E-1,3.8759464E-1,5.3774E-1,-1.9768345E-1,9.830649E-1,-1.6760571E-1,7.342394E-1,-1.2106966E-1,7.952576E-1,-6.5060866E-1,-2.474307E-1,1.317384E0,9.846422E-2,-6.53825E-2,-3.361616E-1,8.1503734E-2,8.9460164E-2,-1.8002114E-1,3.830495E-2,-1.4484875E-1,4.884533E-2,-3.500134E-2,1.669987E-1,-1.1792898E-1],"categories":[],"categories_nodes":[],"categories_segments":[],"categories_sizes":[],"default_left":[0,0,0,0,0,0,0,0,0,0,0,0,0,0,0,0,0,0,0,0,0,0,0,0,0,0,0],"id":40,"left_children":[1,3,5,7,9,11,13,15,-1,17,-1,19,21,23,25,-1,-1,-1,-1,-1,-1,-1,-1,-1,-1,-1,-1],"loss_changes":[1.9325846E3,5.0142944E1,9.857615E2,2.33031E1,8.882791E1,6.34025E2,1.1493461E3,5.3566895E0,0E0,4.6111282E1,0E0,4.4043323E2,3.050926E2,1.1144753E3,4.2876703E2,0E0,0E0,0E0,0E0,0E0,0E0,0E0,0E0,0E0,0E0,0E0,0E0],"parents":[2147483647,0,0,1,1,2,2,3,3,4,4,5,5,6,6,7,7,9,9,11,11,12,12,13,13,14,14],"right_children":[2,4,6,8,10,12,14,16,-1,18,-1,20,22,24,26,-1,-1,-1,-1,-1,-1,-1,-1,-1,-1,-1,-1],"split_conditions":[-3.637189E0,5.3320074E-1,-1.4749148E0,1.7482222E0,-1.4326483E0,9.245823E-2,1.2032214E0,1.0319313E0,-1.6760571E-1,1.049156E0,-1.2106966E-1,1.3911618E0,-1.0265167E0,-1.5004588E0,2.1691869E-1,9.846422E-2,-6.53825E-2,-3.361616E-1,8.1503734E-2,8.9460164E-2,-1.8002114E-1,3.830495E-2,-1.4484875E-1,4.884533E-2,-3.500134E-2,1.669987E-1,-1.1792898E-1],"split_indices":[13,6,18,15,11,22,25,9,0,10,0,1,28,12,28,0,0,0,0,0,0,0,0,0,0,0,0],"split_type":[0,0,0,0,0,0,0,0,0,0,0,0,0,0,0,0,0,0,0,0,0,0,0,0,0,0,0],"sum_hessian":[1.9297633E4,1.9845176E3,1.7313115E4,1.8267942E3,1.5772334E2,2.0691462E3,1.524397E4,1.8243567E3,2.4374468E0,1.3005667E2,2.766668E1,1.7008905E3,3.682557E2,1.4760156E4,4.838131E2,1.8229985E3,1.3581605E0,1.7304494E0,1.2832622E2,1.6388185E3,6.2072006E1,1.60651E2,2.076047E2,1.8053799E3,1.2954776E4,4.2423056E2,5.958257E1],"tree_param":{"num_deleted":"0","num_feature":"30","num_nodes":"27","size_leaf_vector":"1"}},{"base_weights":[-2.1806622E-3,9.3879414E-1,-9.970232E-2,9.862004E-1,-1.2635952E-1,6.0030925E-3,-6.5891904E-1,9.884985E-1,-1.3429397E-1,2.0230584E-1,-3.6714312E-1,-1.0176053E0,7.0641065E-1,1.0141225E-1,9.255109E-2,-1.1180188E-1,2.9195009E-2,5.1987456E-4,-1.0117155E-1,-7.915292E-3,-1.0869888E-1,1.0547985E-1,-1.413909E-1],"categories":[],"categories_nodes":[],"categories_segments":[],"categories_sizes":[],"default_left":[0,0,0,0,0,0,0,0,0,0,0,0,0,0,0,0,0,0,0,0,0,0,0],"id":41,"left_children":[1,3,5,7,-1,9,11,13,-1,15,17,19,21,-1,-1,-1,-1,-1,-1,-1,-1,-1,-1],"loss_changes":[1.731635E3,1.862594E2,1.0107152E3,1.0615845E1,0E0,1.053477E3,1.331878E3,1.8603516E0,0E0,1.115766E3,1.1898914E3,1.4010645E2,4.1967648E2,0E0,0E0,0E0,0E0,0E0,0E0,0E0,0E0,0E0,0E0],"parents":[2147483647,0,0,1,1,2,2,3,3,5,5,6,6,7,7,9,9,10,10,11,11,12,12],"right_children":[2,4,6,8,-1,10,12,14,-1,16,18,20,22,-1,-1,-1,-1,-1,-1,-1,-1,-1,-1],"split_conditions":[-1.6117035E0,-1.8756604E0,2.788123E-1,8.467484E-1,-1.2635952E-1,3.849399E-2,3.7355852E0,3.0755025E-1,-1.3429397E-1,-6.971751E-1,4.9095017E-1,-1.898075E0,-4.3212593E-1,1.0141225E-1,9.255109E-2,-1.1180188E-1,2.9195009E-2,5.1987456E-4,-1.0117155E-1,-7.915292E-3,-1.0869888E-1,1.0547985E-1,-1.413909E-1],"split_indices":[16,11,7,15,0,13,3,27,0,17,0,12,6,0,0,0,0,0,0,0,0,0,0],"split_type":[0,0,0,0,0,0,0,0,0,0,0,0,0,0,0,0,0,0,0,0,0,0,0],"sum_hessian":[1.8868215E4,1.7710396E3,1.7097174E4,1.734262E3,3.6777637E1,1.4379998E4,2.7171765E3,1.7331274E3,1.1344602E0,9.423167E3,4.956831E3,2.152062E3,5.651143E2,1.2212223E3,5.1190518E2,5.983851E2,8.824782E3,3.1425225E3,1.8143086E3,1.4830414E2,2.0037579E3,4.8579614E2,7.93182E1],"tree_param":{"num_deleted":"0","num_feature":"30","num_nodes":"23","size_leaf_vector":"1"}},{"base_weights":[-2.7078353E-3,8.362151E-1,-1.0389599E-1,1.0485976E0,-3.5520194E-3,-3.1248176E-1,1.9668366E-1,9.4844896E-1,2.0269601E-1,-1.1733663E0,6.61327E-1,-3.745682E-1,1.3465604E0,5.3501153E-1,-2.4737403E-1,9.8884195E-2,-1.3346705E-1,7.598751E-2,-1.2817512E-1,9.7357444E-2,-1.4316425E-1,-8.22336E-3,-9.425497E-2,-1.1114921E-1,1.7257716E-1,2.8575465E-2,1.3717861E-1,-5.9646923E-2,1.1926188E-1],"categories":[],"categories_nodes":[],"categories_segments":[],"categories_sizes":[],"default_left":[0,0,0,0,0,0,0,0,0,0,0,0,0,0,0,0,0,0,0,0,0,0,0,0,0,0,0,0,0],"id":42,"left_children":[1,3,5,7,9,11,13,15,-1,17,19,21,23,25,27,-1,-1,-1,-1,-1,-1,-1,-1,-1,-1,-1,-1,-1,-1],"loss_changes":[1.5589065E3,3.525338E2,1.0274977E3,1.5265503E2,3.1187827E2,9.970166E2,1.0088119E3,1.3347388E2,0E0,3.1421783E1,1.6848227E2,1.548466E3,3.2742114E2,7.9445996E2,1.460532E3,0E0,0E0,0E0,0E0,0E0,0E0,0E0,0E0,0E0,0E0,0E0,0E0,0E0,0E0],"parents":[2147483647,0,0,1,1,2,2,3,3,4,4,5,5,6,6,7,7,9,9,10,10,11,11,12,12,13,13,14,14],"right_children":[2,4,6,8,10,12,14,16,-1,18,20,22,24,26,28,-1,-1,-1,-1,-1,-1,-1,-1,-1,-1,-1,-1,-1,-1],"split_conditions":[-3.4420924E0,-3.772466E-1,4.6472216E-1,2.1232443E0,2.3261907E0,1.2032214E0,2.9480442E-2,1.1006193E0,2.0269601E-1,-3.5291784E0,-3.2149598E-1,-2.990922E-2,1.2128587E0,1.020166E0,2.442026E0,9.8884195E-2,-1.3346705E-1,7.598751E-2,-1.2817512E-1,9.7357444E-2,-1.4316425E-1,-8.22336E-3,-9.425497E-2,-1.1114921E-1,1.7257716E-1,2.8575465E-2,1.3717861E-1,-5.9646923E-2,1.1926188E-1],"split_indices":[2,15,10,0,3,25,11,13,0,11,28,25,18,29,3,0,0,0,0,0,0,0,0,0,0,0,0,0,0],"split_type":[0,0,0,0,0,0,0,0,0,0,0,0,0,0,0,0,0,0,0,0,0,0,0,0,0,0,0,0,0],"sum_hessian":[1.836202E4,1.9756006E3,1.638642E4,1.5766157E3,3.9898492E2,9.673501E3,6.712918E3,1.4320006E3,1.4461508E2,1.4431197E2,2.5467294E2,9.325294E3,3.482067E2,3.809927E3,2.902991E3,1.4076631E3,2.43375E1,7.3420653E0,1.3696991E2,2.2207648E2,3.2596466E1,6.1573237E3,3.1679705E3,4.6281063E1,3.0192563E2,2.936538E3,8.7338916E2,2.3370173E3,5.659736E2],"tree_param":{"num_deleted":"0","num_feature":"30","num_nodes":"29","size_leaf_vector":"1"}},{"base_weights":[-2.7878678E-3,7.5513136E-1,-1.08958766E-1,9.016285E-1,-1.07202075E-1,-8.391957E-1,-5.4569114E-3,9.9074316E-1,-1.0238314E0,2.0157105E-1,-1.1021032E0,-1.0954505E0,5.7639048E-2,1.0372656E-1,-1.1752045E-1,-1.1170248E-1,7.649568E-2,8.067842E-2,-1.15580454E-1,-1.0674816E-1,-1.3161953E-1,-1.05711214E-1,-1.2657118E-1,-3.923331E-2,2.1190783E-2],"categories":[],"categories_nodes":[],"categories_segments":[],"categories_sizes":[],"default_left":[0,0,0,0,0,0,0,0,0,0,0,0,0,0,0,0,0,0,0,0,0,0,0,0,0],"id":43,"left_children":[1,3,5,7,-1,9,11,13,15,17,19,21,23,-1,-1,-1,-1,-1,-1,-1,-1,-1,-1,-1,-1],"loss_changes":[1.4422689E3,5.904452E2,1.1882048E3,3.509342E2,0E0,5.342379E2,9.471113E2,1.9767212E2,1.5974625E1,3.2495242E2,1.0144653E1,3.5809326E0,9.0373865E2,0E0,0E0,0E0,0E0,0E0,0E0,0E0,0E0,0E0,0E0,0E0,0E0],"parents":[2147483647,0,0,1,1,2,2,3,3,5,5,6,6,7,7,8,8,9,9,10,10,11,11,12,12],"right_children":[2,4,6,8,-1,10,12,14,16,18,20,22,24,-1,-1,-1,-1,-1,-1,-1,-1,-1,-1,-1,-1],"split_conditions":[-1.5834388E0,2.8558737E-1,-7.512129E-1,8.471364E-1,-1.07202075E-1,-1.4921248E0,-7.6001626E-1,1.0992332E0,2.723479E0,-5.372292E-1,1.7589736E0,1.7970024E0,-3.0562565E-1,1.0372656E-1,-1.1752045E-1,-1.1170248E-1,7.649568E-2,8.067842E-2,-1.15580454E-1,-1.0674816E-1,-1.3161953E-1,-1.05711214E-1,-1.2657118E-1,-3.923331E-2,2.1190783E-2],"split_indices":[15,11,4,17,0,9,17,2,10,25,6,3,21,0,0,0,0,0,0,0,0,0,0,0,0],"split_type":[0,0,0,0,0,0,0,0,0,0,0,0,0,0,0,0,0,0,0,0,0,0,0,0,0],"sum_hessian":[1.7921271E4,2.2012385E3,1.5720032E4,2.0383173E3,1.6292136E2,1.9506311E3,1.3769401E4,1.9486163E3,8.970096E1,3.9342407E2,1.557207E3,7.525532E2,1.3016848E4,1.9081522E3,4.0464115E1,8.561602E1,4.084933E0,2.723825E2,1.21041565E2,1.3455924E3,2.1161462E2,6.201257E2,1.324275E2,3.3229382E3,9.693909E3],"tree_param":{"num_deleted":"0","num_feature":"30","num_nodes":"25","size_leaf_vector":"1"}},{"base_weights":[-2.9896107E-3,9.0403104E-1,-8.484322E-2,9.6358967E-1,3.1465104E-1,-1.0470656E-1,-3.2102257E-2,9.6953E-1,-1.600169E-1,6.7345953E-1,-1.189694E-1,3.905592E-2,-7.935015E-1,9.7132385E-2,-5.9456646E-2,-2.8359076E-1,7.655023E-2,-2.6014103E-2,2.3997562E-2,9.528045E-2,-1.0943128E-1],"categories":[],"categories_nodes":[],"categories_segments":[],"categories_sizes":[],"default_left":[0,0,0,0,0,0,0,0,0,0,0,0,0,0,0,0,0,0,0,0,0],"id":44,"left_children":[1,3,5,7,9,-1,11,13,-1,15,-1,17,19,-1,-1,-1,-1,-1,-1,-1,-1],"loss_changes":[1.3034972E3,5.071106E1,8.1721423E2,2.1645752E1,7.359783E1,0E0,8.272528E2,4.272705E0,0E0,3.755087E1,0E0,8.395074E2,6.865711E2,0E0,0E0,0E0,0E0,0E0,0E0,0E0,0E0],"parents":[2147483647,0,0,1,1,2,2,3,3,4,4,6,6,7,7,9,9,11,11,12,12],"right_children":[2,4,6,8,10,-1,12,14,-1,16,-1,18,20,-1,-1,-1,-1,-1,-1,-1,-1],"split_conditions":[-3.637189E0,5.3320074E-1,-1.3220327E0,1.7482222E0,-1.4326483E0,-1.0470656E-1,1.3911618E0,1.0319313E0,-1.600169E-1,1.049156E0,-1.189694E-1,5.794374E-3,-1.6117035E0,9.7132385E-2,-5.9456646E-2,-2.8359076E-1,7.655023E-2,-2.6014103E-2,2.3997562E-2,9.528045E-2,-1.0943128E-1],"split_indices":[13,6,3,15,11,0,1,9,0,10,0,27,16,0,0,0,0,0,0,0,0],"split_type":[0,0,0,0,0,0,0,0,0,0,0,0,0,0,0,0,0,0,0,0,0],"sum_hessian":[1.7555158E4,1.4522887E3,1.610287E4,1.3184232E3,1.3386555E2,8.357805E2,1.526709E4,1.3159958E3,2.4273796E0,1.0853152E2,2.5334044E1,1.3963089E4,1.3040012E3,1.3148668E3,1.1290091E0,2.0118997E0,1.06519615E2,5.609492E3,8.353597E3,1.912965E2,1.1127047E3],"tree_param":{"num_deleted":"0","num_feature":"30","num_nodes":"21","size_leaf_vector":"1"}},{"base_weights":[-2.8552834E-3,-1.591033E-1,4.4632706E-1,4.866178E-2,-6.0315514E-1,-1.20800465E-1,8.377265E-1,-7.6713896E-1,2.5140736E-1,3.0371156E-1,-9.020951E-1,4.613907E-1,-1.14519E0,9.108143E-1,-1.4507424E0,-1.0945251E-1,6.482565E-2,-7.2949536E-2,4.0341258E-2,9.299195E-2,-1.0683008E-1,1.2458259E-1,-1.011708E-1,8.144278E-2,-1.28606E-1,3.057837E-2,-1.32435E-1,9.508096E-2,-1.3096182E-1,-1.5611997E-1,-1.2209346E-1],"categories":[],"categories_nodes":[],"categories_segments":[],"categories_sizes":[],"default_left":[0,0,0,0,0,0,0,0,0,0,0,0,0,0,0,0,0,0,0,0,0,0,0,0,0,0,0,0,0,0,0],"id":45,"left_children":[1,3,5,7,9,11,13,15,17,19,21,23,25,27,29,-1,-1,-1,-1,-1,-1,-1,-1,-1,-1,-1,-1,-1,-1,-1,-1],"loss_changes":[1.2121028E3,1.1821627E3,9.894596E2,1.4441351E3,1.107516E3,1.0864734E3,4.424242E2,8.0605963E2,1.042969E3,8.715936E2,7.245249E2,7.177378E2,1.7200977E2,2.282561E2,1.7550659E-1,0E0,0E0,0E0,0E0,0E0,0E0,0E0,0E0,0E0,0E0,0E0,0E0,0E0,0E0,0E0,0E0],"parents":[2147483647,0,0,1,1,2,2,3,3,4,4,5,5,6,6,7,7,8,8,9,9,10,10,11,11,12,12,13,13,14,14],"right_children":[2,4,6,8,10,12,14,16,18,20,22,24,26,28,30,-1,-1,-1,-1,-1,-1,-1,-1,-1,-1,-1,-1,-1,-1,-1,-1],"split_conditions":[2.442026E0,1.8907044E-2,4.6472216E-1,-3.506725E-1,-5.372292E-1,-4.8569813E-1,1.3422445E0,5.903408E-1,-7.342158E-2,-7.5726026E-1,-2.4574487E0,3.582285E-1,-2.1638124E0,2.0155175E0,8.676051E-1,-1.0945251E-1,6.482565E-2,-7.2949536E-2,4.0341258E-2,9.299195E-2,-1.0683008E-1,1.2458259E-1,-1.011708E-1,8.144278E-2,-1.28606E-1,3.057837E-2,-1.32435E-1,9.508096E-2,-1.3096182E-1,-1.5611997E-1,-1.2209346E-1],"split_indices":[3,13,10,29,25,28,13,20,26,0,18,2,18,2,2,0,0,0,0,0,0,0,0,0,0,0,0,0,0,0,0],"split_type":[0,0,0,0,0,0,0,0,0,0,0,0,0,0,0,0,0,0,0,0,0,0,0,0,0,0,0,0,0,0,0],"sum_hessian":[1.7268383E4,1.2812278E4,4.4561035E3,8.729002E3,4.0832766E3,1.8198623E3,2.6362415E3,1.7369874E3,6.9920146E3,1.01230963E3,3.070967E3,1.1607328E3,6.591295E2,2.5552358E3,8.1005684E1,1.4108739E3,3.2611356E2,9.3762714E2,6.0543877E3,6.952904E2,3.170192E2,1.486054E2,2.9223616E3,9.6608813E2,1.9464462E2,7.236397E1,5.8676556E2,2.510586E3,4.4649796E1,5.0796722E1,3.0208963E1],"tree_param":{"num_deleted":"0","num_feature":"30","num_nodes":"31","size_leaf_vector":"1"}},{"base_weights":[-3.6777784E-3,7.1873516E-1,-9.293993E-2,8.671319E-1,-1.0634607E-1,-8.247053E-1,2.4902201E-3,-7.328304E-1,9.7291684E-1,1.7193826E-1,-1.0906038E0,-8.676682E-2,6.989224E-1,8.420357E-2,-1.0574126E-1,1.0264899E-1,-1.15163386E-1,-1.1690706E-1,7.35895E-2,-1.05976455E-1,-1.275491E-1,7.554053E-2,-1.9513018E-2,-1.2338587E-1,8.783928E-2],"categories":[],"categories_nodes":[],"categories_segments":[],"categories_sizes":[],"default_left":[0,0,0,0,0,0,0,0,0,0,0,0,0,0,0,0,0,0,0,0,0,0,0,0,0],"id":46,"left_children":[1,3,5,7,-1,9,11,13,15,17,19,21,23,-1,-1,-1,-1,-1,-1,-1,-1,-1,-1,-1,-1],"loss_changes":[1.0755306E3,4.8602637E2,1.036646E3,2.8739124E2,0E0,4.5403125E2,8.1643634E2,5.487757E1,1.8206055E2,2.7428433E2,6.3571777E0,1.0626093E3,5.186527E2,0E0,0E0,0E0,0E0,0E0,0E0,0E0,0E0,0E0,0E0,0E0,0E0],"parents":[2147483647,0,0,1,1,2,2,3,3,5,5,6,6,7,7,8,8,9,9,10,10,11,11,12,12],"right_children":[2,4,6,8,-1,10,12,14,16,18,20,22,24,-1,-1,-1,-1,-1,-1,-1,-1,-1,-1,-1,-1],"split_conditions":[-1.5834388E0,2.8558737E-1,-7.512129E-1,4.6143513E-2,-1.0634607E-1,-1.4921248E0,1.4721309E0,-2.7033043E0,1.0992332E0,-1.7759048E0,1.7589736E0,-5.6149703E-1,-3.0185854E-1,8.420357E-2,-1.0574126E-1,1.0264899E-1,-1.15163386E-1,-1.1690706E-1,7.35895E-2,-1.05976455E-1,-1.275491E-1,7.554053E-2,-1.9513018E-2,-1.2338587E-1,8.783928E-2],"split_indices":[15,11,4,3,0,9,28,9,2,9,6,4,4,0,0,0,0,0,0,0,0,0,0,0,0],"split_type":[0,0,0,0,0,0,0,0,0,0,0,0,0,0,0,0,0,0,0,0,0,0,0,0,0],"sum_hessian":[1.667696E4,1.8332358E3,1.4843725E4,1.6927965E3,1.4043935E2,1.7115779E3,1.3132146E4,1.046142E2,1.5881824E3,3.6054245E2,1.3510354E3,1.1641065E4,1.4910818E3,1.76043E1,8.7009895E1,1.5496237E3,3.855866E1,1.06419365E2,2.541231E2,1.1636666E3,1.8736879E2,1.3264293E3,1.0314636E4,1.2619267E2,1.364889E3],"tree_param":{"num_deleted":"0","num_feature":"30","num_nodes":"25","size_leaf_vector":"1"}},{"base_weights":[-3.5818005E-3,-1.4805336E-1,4.2269212E-1,4.7106583E-2,-5.9306103E-1,-9.854016E-2,7.961399E-1,-7.429953E-1,2.3018385E-1,-8.7532103E-1,3.0493715E-1,4.478342E-1,-1.12223E0,8.669761E-1,-1.390159E-1,-1.05812564E-1,6.1970215E-2,3.3553604E-2,-1.09040916E-1,7.191566E-2,-1.06222406E-1,8.512727E-2,-1.1416816E-1,7.680472E-2,-1.2543188E-1,2.4355778E-2,-1.29642E-1,8.899226E-2,-3.241353E-1],"categories":[],"categories_nodes":[],"categories_segments":[],"categories_sizes":[],"default_left":[0,0,0,0,0,0,0,0,0,0,0,0,0,0,0,0,0,0,0,0,0,0,0,0,0,0,0,0,0],"id":47,"left_children":[1,3,5,7,9,11,13,15,17,19,21,23,25,27,-1,-1,-1,-1,-1,-1,-1,-1,-1,-1,-1,-1,-1,-1,-1],"loss_changes":[1.0055801E3,1.0591581E3,8.0461707E2,1.226565E3,9.4263696E2,9.6595404E2,3.7414087E2,6.8568335E2,9.5814056E2,8.4384546E2,7.0427844E2,6.1477625E2,1.432898E2,2.2283057E2,0E0,0E0,0E0,0E0,0E0,0E0,0E0,0E0,0E0,0E0,0E0,0E0,0E0,0E0,0E0],"parents":[2147483647,0,0,1,1,2,2,3,3,4,4,5,5,6,6,7,7,8,8,9,9,10,10,11,11,12,12,13,13],"right_children":[2,4,6,8,10,12,14,16,18,20,22,24,26,28,-1,-1,-1,-1,-1,-1,-1,-1,-1,-1,-1,-1,-1,-1,-1],"split_conditions":[2.442026E0,1.8907044E-2,4.6472216E-1,-3.506725E-1,1.6210725E0,-4.8569813E-1,1.3422445E0,6.282699E-1,5.451428E-1,-1.6402593E0,-3.3100858E-1,3.582285E-1,-2.1638124E0,1.887344E0,-1.390159E-1,-1.05812564E-1,6.1970215E-2,3.3553604E-2,-1.09040916E-1,7.191566E-2,-1.06222406E-1,8.512727E-2,-1.1416816E-1,7.680472E-2,-1.2543188E-1,2.4355778E-2,-1.29642E-1,8.899226E-2,-3.241353E-1],"split_indices":[3,13,10,29,28,28,13,20,9,18,25,2,18,0,0,0,0,0,0,0,0,0,0,0,0,0,0,0,0],"split_type":[0,0,0,0,0,0,0,0,0,0,0,0,0,0,0,0,0,0,0,0,0,0,0,0,0,0,0,0,0],"sum_hessian":[1.6326455E4,1.2194263E4,4.132193E3,8.477371E3,3.7168916E3,1.725123E3,2.4070698E3,1.594212E3,6.8831587E3,2.8280125E3,8.8887933E2,1.1251558E3,5.999673E2,2.3321125E3,7.495709E1,1.294968E3,2.9924408E2,6.3753057E3,5.078531E2,2.964171E2,2.5315952E3,6.455064E2,2.4337288E2,9.474652E2,1.776906E2,6.781844E1,5.321488E2,2.3199385E3,1.2174279E1],"tree_param":{"num_deleted":"0","num_feature":"30","num_nodes":"29","size_leaf_vector":"1"}},{"base_weights":[-4.5288363E-3,7.784812E-1,-7.8100346E-2,1.0196172E0,-1.2915067E-2,-5.8209324E-1,2.5024766E-2,1.0646732E0,-1.2732367E-1,-1.1266054E0,6.009721E-1,-9.1956335E-1,7.8924096E-1,1.5069786E-1,-7.07463E-1,9.4299845E-2,1.7963183E-1,7.612445E-2,-1.2643664E-1,9.0023294E-2,-1.354916E-1,-2.1496718E-3,-1.1883818E-1,1.0727097E-1,-1.1727511E-1,3.45487E-2,-2.6743442E-2,6.705752E-2,-9.824464E-2],"categories":[],"categories_nodes":[],"categories_segments":[],"categories_sizes":[],"default_left":[0,0,0,0,0,0,0,0,0,0,0,0,0,0,0,0,0,0,0,0,0,0,0,0,0,0,0,0,0],"id":48,"left_children":[1,3,5,7,9,11,13,15,-1,17,19,21,23,25,27,-1,-1,-1,-1,-1,-1,-1,-1,-1,-1,-1,-1,-1,-1],"loss_changes":[9.083742E2,2.5846826E2,7.4917285E2,1.08594604E2,2.1759431E2,1.1338093E3,1.1016802E3,8.898511E1,0E0,3.0374405E1,1.213201E2,4.7443945E2,2.7048083E2,8.3207837E2,6.647927E2,0E0,0E0,0E0,0E0,0E0,0E0,0E0,0E0,0E0,0E0,0E0,0E0,0E0,0E0],"parents":[2147483647,0,0,1,1,2,2,3,3,4,4,5,5,6,6,7,7,9,9,10,10,11,11,12,12,13,13,14,14],"right_children":[2,4,6,8,10,12,14,16,-1,18,20,22,24,26,28,-1,-1,-1,-1,-1,-1,-1,-1,-1,-1,-1,-1,-1,-1],"split_conditions":[-3.4420924E0,-3.772466E-1,-8.6118466E-1,1.1006193E0,2.3261907E0,5.326654E-1,2.788123E-1,2.1232443E0,-1.2732367E-1,-1.6117035E0,-3.2149598E-1,-1.4092972E0,-4.6588797E-2,3.849399E-2,-2.037831E0,9.4299845E-2,1.7963183E-1,7.612445E-2,-1.2643664E-1,9.0023294E-2,-1.354916E-1,-2.1496718E-3,-1.1883818E-1,1.0727097E-1,-1.1727511E-1,3.45487E-2,-2.6743442E-2,6.705752E-2,-9.824464E-2],"split_indices":[2,15,5,13,3,20,7,0,0,16,28,9,11,13,11,0,0,0,0,0,0,0,0,0,0,0,0,0,0],"split_type":[0,0,0,0,0,0,0,0,0,0,0,0,0,0,0,0,0,0,0,0,0,0,0,0,0,0,0,0,0],"sum_hessian":[1.5766351E4,1.3533439E3,1.4413007E4,1.037065E3,3.162788E2,2.4474055E3,1.1965602E4,1.0176041E3,1.9460896E1,1.1209152E2,2.041873E2,1.9643342E3,4.8307138E2,1.021398E4,1.7516207E3,8.744667E2,1.4313744E2,7.3154902E0,1.0477603E2,1.7755952E2,2.6627779E1,4.5277774E2,1.5115565E3,4.224841E2,6.058728E1,6.968051E3,3.24593E3,2.911462E2,1.4604745E3],"tree_param":{"num_deleted":"0","num_feature":"30","num_nodes":"29","size_leaf_vector":"1"}},{"base_weights":[-4.749524E-3,8.671508E-1,-6.593469E-2,9.3841976E-1,1.8907745E-1,2.3479303E-2,-5.9539515E-1,9.465821E-1,-1.511238E-1,4.0881944E-1,-3.0894184E0,-2.6392433E-1,2.3495606E-1,-1.0933478E0,2.0993017E-1,1.7668292E-2,9.514258E-2,-9.668513E-2,9.0297654E-2,-6.1222273E-1,-1.1301632E-1,-5.757891E-2,3.192086E-2,1.2049631E-1,1.1992066E-2,8.589331E-2,-1.1738415E-1,7.0314094E-2,-1.15589045E-1],"categories":[],"categories_nodes":[],"categories_segments":[],"categories_sizes":[],"default_left":[0,0,0,0,0,0,0,0,0,0,0,0,0,0,0,0,0,0,0,0,0,0,0,0,0,0,0,0,0],"id":49,"left_children":[1,3,5,7,9,11,13,15,-1,17,19,21,23,25,27,-1,-1,-1,-1,-1,-1,-1,-1,-1,-1,-1,-1,-1,-1],"loss_changes":[8.224648E2,4.8677246E1,6.8201746E2,1.9716858E1,7.143388E1,7.492095E2,8.3490515E2,3.2334595E0,0E0,6.3528008E1,3.0130714E1,9.50464E2,7.9226E2,2.0314795E2,5.370951E2,